constexpr int16_t L1Weights[L1_SIZE * 2 * OUTPUT_BUCKETS] = {0,-6,19,16,-7,11,-19,10,-13,41,-4,24,-4,0,24,30,-17,13,5,18,-26,5,-7,-6,15,-16,12,6,21,-14,14,20,43,-25,-8,21,16,-27,-21,17,-26,22,-28,-14,13,6,-17,15,23,54,25,0,-15,-11,-21,11,-9,28,42,-19,-17,18,19,28,14,20,11,14,-20,-97,11,21,0,13,-20,25,-23,13,20,21,-23,23,0,16,23,0,8,13,-33,18,1,-5,-20,-9,-27,5,14,17,0,-33,-64,0,-22,14,27,3,0,-16,0,0,20,-13,-18,16,14,5,-22,1,42,15,26,15,-4,14,-31,51,-15,15,-20,-12,33,-18,-29,20,38,-10,12,20,-12,-12,0,-4,-16,11,8,-32,4,-8,15,8,-12,12,-29,-21,-22,56,-19,9,0,22,0,13,12,-23,23,-12,-12,23,24,7,-8,10,-8,5,-8,-20,-13,6,-18,-23,-16,23,12,11,0,-42,13,16,0,-8,-34,11,13,0,-68,21,18,-16,-17,-40,7,20,50,10,-23,-25,16,-19,-43,-21,-26,0,-34,-8,-22,-15,0,25,-26,-8,17,-3,-21,10,21,0,0,-25,10,-13,10,59,20,14,-26,12,17,-56,37,-27,15,0,-18,-27,-2,13,13,18,11,-15,40,21,-15,-10,16,24,-11,-5,1,20,18,32,23,-17,-11,-12,-6,1,-19,24,17,13,8,-12,-26,-13,13,28,-9,-12,9,-19,-15,18,-27,0,-19,6,-7,0,-52,-11,25,-28,-17,-32,4,-5,9,-10,29,-43,-2,26,-7,-13,-20,63,-17,9,48,17,5,9,14,-31,0,0,-23,18,24,20,37,-10,9,8,7,-61,-18,0,18,-17,13,-2,-35,12,-1,-15,-5,-17,12,-4,16,-11,118,16,-10,8,-14,12,10,28,0,53,17,10,-18,21,16,-14,-28,30,-19,-17,-28,-14,-2,-13,-14,30,19,60,2,0,-33,-21,10,44,2,14,-35,34,0,-9,-16,-23,-22,15,-12,11,13,-19,-42,-19,19,6,0,-32,-14,-17,9,18,19,24,10,25,46,-21,0,39,2,-23,1,-18,-6,19,0,20,0,-40,15,38,-96,-30,-2,62,16,13,-20,0,-28,-72,-56,19,-34,9,-52,55,-7,16,0,-106,-65,-18,-23,2,-8,-6,0,9,26,3,15,0,-18,0,17,3,0,-17,26,8,-25,6,-23,12,20,26,-23,14,-14,-37,23,-12,9,13,-13,39,-1,0,21,-37,-11,-20,8,0,-20,-11,12,14,11,26,0,-12,-21,-14,2,40,68,-32,-37,-4,-22,-24,-26,7,19,-17,-5,77,10,0,9,0,-24,10,-2,5,0,-20,78,-11,-29,15,-9,11,55,-62,16,0,-39,6,-17,-20,22,5,22,-39,12,-55,19,24,17,-13,-20,-16,-21,-1,-18,16,9,-14,-3,18,10,7,-11,-11,57,2,33,-41,0,17,9,-9,13,9,17,11,12,-39,-9,-14,-6,11,-27,15,-11,3,21,0,25,-23,-12,6,-21,-9,34,-8,-18,0,-40,0,-29,-21,-8,0,10,-17,15,0,5,4,24,12,-20,-4,-10,16,14,-31,-32,0,5,0,4,-15,27,24,17,-1,33,-4,10,0,-29,-24,-10,18,12,-8,-7,0,-7,21,-40,-17,-5,4,-30,-9,-21,19,8,0,-15,10,-30,-20,-34,0,21,-16,7,49,12,43,28,-29,-13,47,54,1,-23,6,11,-10,-30,0,-27,-18,-19,-11,16,27,-14,23,3,0,-28,-19,13,11,34,-22,0,23,-35,18,26,-17,-27,14,19,30,-3,-19,0,-12,22,27,22,-19,-21,2,-33,-7,-10,18,-12,28,16,-22,-34,-9,5,-3,-7,-32,-25,0,34,-19,39,0,-1,0,22,-9,-15,31,-65,25,-57,-21,13,8,-17,9,-8,-4,-38,-126,-22,0,-83,-7,6,0,-25,-14,80,2,9,-45,20,11,-25,2,33,0,-41,18,-11,26,3,14,-60,-39,33,-4,-8,10,-18,-4,1,-22,-16,2,9,-7,-16,8,-17,14,-7,-7,-2,5,50,28,21,-9,17,14,15,8,-14,-7,-2,23,-11,-2,0,-34,19,0,0,0,-14,26,30,10,-13,-100,-19,4,8,11,-14,48,7,0,-5,-20,5,-6,30,12,16,-5,-11,0,-27,8,-7,11,-18,10,30,0,-72,-22,-15,0,-52,-22,0,6,-13,-46,-31,-15,15,-1,52,-27,0,23,-9,-24,8,17,8,0,0,24,-64,-28,-17,-11,-29,-9,21,-5,0,55,8,-12,-10,0,8,-10,6,-14,-11,-6,19,0,4,15,-26,0,8,13,27,-19,-2,-16,-27,-7,27,0,0,23,19,-11,40,0,-10,0,-1,0,0,0,12,-17,-14,9,-10,-21,-5,-10,6,-12,15,12,-18,-24,28,10,19,-57,25,21,-23,-1,-28,-9,-17,0,18,3,0,-10,-9,5,-39,0,-4,0,-14,0,-60,-16,0,47,-5,-17,19,-22,17,5,-17,0,-18,-60,-25,18,0,-12,-22,9,-20,0,-19,-26,-10,40,73,0,9,22,11,33,0,-19,-24,53,-4,-9,11,-20,23,-16,20,-21,20,-11,0,-20,15,-14,7,11,107,-3,-13,8,-25,1,20,14,6,-12,28,0,12,21,-5,8,0,-30,12,10,13,0,-7,43,27,11,-20,-15,-13,-15,0,-24,35,-20,3,2,28,4,-10,11,2,-5,11,-8,19,-18,33,-4,-61,-7,-21,32,-13,-15,32,16,0,-15,57,-22,-12,-13,1,-10,26,28,18,37,0,17,-10,33,0,6,26,-15,-26,30,13,-14,14,-22,1,-10,6,-29,-8,1,-18,-35,-5,19,25,12,0,7,5,0,-12,-1,-20,-1,-45,0,-2,16,15,-24,0,58,29,-13,-12,-18,-23,13,0,-16,-11,-47,-4,33,-5,-23,26,18,11,0,-56,-9,6,21,21,42,2,13,16,17,20,10,-21,9,16,5,51,-8,-9,-20,7,63,-17,0,-17,-14,-8,34,0,31,0,4,-4,17,8,-15,25,0,-26,15,-5,-2,-31,-13,3,-1,-3,-10,16,-29,-13,13,-11,1,-27,7,15,-15,-20,104,2,-33,-24,18,30,-14,-17,28,0,25,41,29,-25,0,-23,9,-10,-1,-20,11,11,-6,-4,16,18,-52,-4,-126,21,-24,-12,39,-13,25,0,8,0,0,-13,19,10,0,-46,-17,23,-4,16,41,-4,-14,19,-29,-32,0,2,-15,-4,-8,0,-52,-24,27,29,0,13,1,20,-23,-21,86,-21,-14,32,-11,30,24,9,-14,-28,-9,-21,-24,18,31,-21,-23,14,0,17,4,0,-12,0,0,-18,-1,10,6,-13,-13,14,-33,0,-12,-36,-10,-43,6,-2,24,-13,10,10,5,-19,-9,21,-32,1,5,-8,-1,11,17,-1,14,13,21,16,4,8,7,-16,-33,8,-13,-15,-5,-7,-22,9,13,-37,11,-19,-12,14,-16,-24,-25,13,-6,18,-10,-30,1,-1,-20,12,20,35,-19,16,-9,-42,-14,-16,-34,23,0,1,17,3,-23,0,36,-28,10,21,-2,0,-34,11,17,1,21,0,-13,-5,-25,5,18,-19,-12,-59,17,14,-14,19,-34,-12,-34,11,22,17,-19,32,-7,-31,18,0,-34,85,0,8,-16,-26,10,8,-22,-26,-3,-23,28,-17,-16,-14,28,7,-35,11,17,-21,0,0,41,15,11,1,-12,33,4,9,12,-42,18,0,23,-74,-24,-41,3,-21,-11,-80,0,48,-1,24,-37,-22,-29,18,-9,-33,1,49,-13,14,-4,8,-22,22,0,4,13,19,-13,-5,-4,-13,10,19,1,-18,-3,16,-18,-19,-10,-12,15,23,-12,0,20,-10,21,0,-9,-25,0,22,-9,3,-13,0,17,-27,0,-1,-15,0,-9,15,-13,-14,30,-43,-17,-14,-8,15,1,-13,0,13,-13,14,8,-32,10,-10,-14,-68,-18,-35,6,12,-12,4,16,0,4,-19,-16,8,-5,20,-10,10,-43,4,-16,5,0,-23,-25,29,-14,-4,-16,32,0,9,10,-14,17,-13,-5,-18,13,-14,-17,-44,23,9,-21,-14,25,20,-20,21,-23,35,13,-12,-6,21,-17,-24,-49,-25,0,15,11,20,-6,9,-28,-39,17,19,-17,-19,-26,-12,-19,-10,-13,18,126,-11,-20,0,-18,22,-27,24,-15,-22,-22,23,-22,0,-13,-22,0,-9,-14,33,-19,-2,6,19,10,25,-5,-16,-17,0,29,56,0,27,-14,-37,-3,0,18,0,0,-21,21,18,-14,-14,-5,20,0,-42,-12,-31,-14,8,-12,31,-54,12,-13,19,13,-31,19,29,-20,-52,11,-13,-19,13,12,0,4,14,-8,-10,40,-2,11,-15,-10,15,-12,28,25,25,-54,17,-9,0,-20,0,6,-13,24,-27,12,13,-24,-24,0,14,-8,12,-9,8,21,15,-7,16,24,28,-21,-13,-11,0,50,-16,-16,0,6,34,-9,-12,0,82,-23,-18,15,15,36,-6,-19,-49,-10,24,25,-17,22,51,23,22,0,34,7,21,14,0,-25,28,-3,-12,2,21,-10,-20,0,-2,22,-9,13,-11,-60,-19,-19,14,-12,-13,58,-37,29,-14,0,18,24,2,-13,-12,-18,-10,15,-36,-28,15,9,-19,-35,9,4,0,-17,-23,-33,-21,11,11,12,7,-1,17,-23,-18,-15,-8,12,26,13,-14,-28,10,13,-11,19,15,-19,27,0,18,-5,6,1,22,15,-25,27,15,35,-5,5,-10,11,-30,56,4,-23,7,13,26,-65,24,-9,-46,-17,-5,-10,-14,22,0,0,23,-17,-20,-21,-37,8,-9,-8,-7,69,18,-1,-17,16,-21,3,32,-14,0,15,9,18,-12,2,-16,10,-126,-16,9,-7,14,-12,-11,-25,0,-48,-17,-10,18,-22,-15,17,29,-25,22,18,28,15,1,11,14,-29,-19,-49,1,0,29,21,-10,-44,1,-12,34,-24,0,10,13,21,22,-17,13,-10,-15,21,44,16,-19,-5,5,30,13,16,4,-19,-13,-23,-9,-21,-36,22,0,-35,-2,20,-1,24,17,-18,0,-14,0,44,-15,-41,99,30,5,-60,-16,-15,20,0,26,68,60,-18,36,-9,54,-67,5,-15,0,119,67,36,22,-2,9,7,0,-10,-24,-3,-9,0,30,0,-18,0,0,17,-28,-7,25,-6,23,-11,-19,-24,26,-14,13,38,-20,13,-8,-12,11,-34,0,0,-19,44,11,25,-8,-6,26,11,-14,-13,-10,-25,0,16,20,13,0,-38,-50,31,37,1,26,23,25,-7,-14,16,5,-59,-10,-1,-10,0,29,-9,4,-6,0,16,-60,11,30,-15,10,-10,-43,72,-17,0,28,-7,16,22,-22,-7,-17,21,-13,52,-19,-24,-16,13,20,17,19,2,22,-16,-8,17,3,-17,-10,-9,9,12,-47,-6,-25,55,0,-17,-10,9,-13,-8,-20,-9,-16,35,4,14,11,-12,25,-15,11,-3,-21,0,-24,21,11,9,21,13,-29,2,18,0,39,0,28,22,4,0,-9,17,-15,0,-4,-5,-26,-12,21,5,9,-15,-13,33,32,0,-5,0,-4,17,-24,-22,-17,0,-37,2,-11,1,32,19,12,-19,-13,9,7,0,8,-19,46,18,5,-3,28,10,21,-21,-6,-1,15,-11,30,21,34,0,-21,18,-8,-47,-52,-42,-17,32,14,-34,-45,0,23,-8,-11,10,30,-2,25,18,18,11,-21,-24,13,-23,-3,5,28,16,-14,-14,-27,27,0,-28,34,-19,-31,18,27,-15,-17,-28,1,21,0,10,-23,-24,-21,18,21,-7,31,9,11,-23,14,-30,-16,22,34,10,-5,2,8,31,24,2,-36,21,-38,1,0,0,-19,8,15,-33,86,-23,66,19,-11,-9,18,-8,6,3,49,125,21,0,85,10,-2,0,23,13,-68,-16,-12,49,-19,-10,19,-1,-30,0,40,-16,9,-23,-1,-9,42,28,-28,0,7,-11,19,5,0,24,16,-6,-10,7,18,-8,16,-11,7,7,2,-7,-45,-26,-62,12,-20,-14,-14,-8,13,8,0,-20,14,2,0,33,-12,3,6,0,16,-26,-19,-8,15,93,20,-4,-12,-12,14,-55,-7,0,5,21,-4,7,-32,-11,-16,3,22,0,22,-1,6,-12,18,-7,-25,0,71,20,15,0,41,22,0,-11,19,41,45,14,-16,0,-33,27,-1,-23,10,35,-7,-15,-9,0,0,-21,85,36,18,12,30,10,-13,1,0,-58,-10,15,10,0,-6,11,-6,14,12,7,-18,0,-2,-14,27,0,-9,-8,-25,19,0,18,28,7,-27,0,0,-22,-14,11,-37,0,10,0,0,0,0,0,-13,17,17,-8,10,20,6,10,-5,10,-17,-8,20,24,-29,-11,-18,64,-28,-22,20,0,32,8,18,0,-18,-2,0,12,9,-2,41,0,4,0,14,0,54,15,2,-41,5,17,-18,20,-18,-4,17,0,17,66,28,-21,0,11,22,-7,18,0,21,30,11,-37,-63,0,-10,-23,-9,-26,0,15,23,-45,4,9,-12,25,-24,15,-20,24,-19,20,-3,21,-14,14,-5,-11,-85,1,13,-6,31,-1,-20,-13,0,10,-23,0,-12,-20,-3,-7,0,29,0,-10,-19,0,7,-40,-23,-15,22,16,16,12,0,26,-27,22,-2,-1,-24,-1,9,-11,-4,2,-12,7,-15,18,-33,3,60,8,24,-29,14,15,-33,-16,0,17,-58,22,13,14,-2,11,-30,-27,-18,-38,0,-17,9,-35,0,-8,-26,14,29,-34,-12,13,-14,22,13,12,-13,37,6,-4,18,38,5,-17,-26,-14,0,-8,-4,0,12,3,29,1,86,0,-1,-17,-15,27,0,-53,-28,13,12,19,21,-7,0,12,12,57,5,-28,5,22,-25,-16,-12,0,57,9,-8,-21,-20,-43,-2,-10,-35,-10,-15,-3,18,-9,-21,-8,-20,8,7,16,-8,-54,17,0,18,14,13,-28,0,-20,0,-3,2,-18,-7,16,-26,1,31,-16,6,3,28,17,-6,1,5,10,-19,29,13,-13,11,-2,28,-7,-14,15,17,-92,0,32,25,-19,-33,17,21,-26,0,-25,-30,-23,22,0,23,-9,10,0,18,-12,-14,6,26,-19,-21,66,2,126,-20,21,12,-32,16,-29,0,-8,0,0,18,-17,-8,0,45,16,-22,5,-16,-42,4,14,-21,27,31,0,-2,16,5,7,1,53,20,-22,-30,0,-14,2,-20,24,20,-58,17,15,-23,11,-28,-20,-3,12,25,10,24,25,-18,-27,20,27,-12,1,-17,-4,0,13,0,-1,17,1,-9,2,13,12,-10,50,-3,17,38,9,41,0,3,-25,10,-10,-10,-5,19,9,-19,32,-2,-5,9,3,-10,-18,-5,-14,-13,-23,-17,-4,-9,-8,16,30,-11,12,13,4,9,21,-17,-12,36,-12,18,12,-16,16,27,26,-13,4,-15,10,30,-2,1,20,-13,-12,-29,21,-15,8,48,12,17,39,-21,0,9,-18,6,23,0,-33,31,-9,-21,0,0,43,-11,-18,0,-17,0,15,5,22,-13,-18,18,9,66,-10,-13,14,-26,48,13,45,-9,-23,-19,20,-29,6,34,-20,0,38,-54,0,-7,19,28,-10,-8,22,32,1,26,-24,11,21,13,-31,-6,42,-7,-11,21,-5,0,-42,-13,-9,-1,12,-27,-4,-9,-13,37,-11,0,-25,69,22,42,-2,16,6,108,0,-62,1,-14,35,20,19,-21,11,40,3,-44,11,-11,3,-8,20,-16,0,-4,-13,-15,13,5,5,13,-11,-18,-8,18,2,-17,19,21,11,13,-14,-22,15,0,-19,10,-19,-2,11,28,-2,-18,2,-6,12,0,-19,24,0,2,17,0,6,-17,12,16,-32,46,13,25,9,-15,-1,12,0,-13,14,-13,-9,29,-10,9,15,72,22,35,-5,-13,13,-4,-17,0,2,20,17,-8,-14,-25,10,-16,48,-5,38,-2,1,30,46,-23,14,7,39,-28,3,-12,-15,18,-16,16,7,23,-14,12,22,50,-29,-15,22,16,-32,-23,23,-34,26,-35,-18,20,6,-21,-1,25,47,32,0,-21,3,-27,15,-10,33,53,-20,-12,21,24,36,22,28,12,15,-18,-93,14,22,0,28,-20,31,-25,16,23,20,-25,23,12,25,24,0,10,15,-30,18,0,-14,-22,-12,-29,3,16,17,-17,-30,-62,0,-24,16,32,8,-8,-16,0,17,20,-11,-17,18,15,14,-22,-13,52,19,28,19,-12,17,-33,58,-22,17,-21,-15,52,-21,-30,26,57,-12,13,21,-13,-13,0,-5,-34,3,9,-40,9,-11,18,14,-17,13,-33,-26,-31,59,-20,11,-18,30,0,30,17,-26,32,-18,-13,23,23,23,-25,14,7,11,-9,-24,-15,8,-19,-31,-20,26,16,7,0,-57,16,15,3,0,-36,22,16,1,-74,23,17,-18,-22,-54,10,23,46,12,-25,-25,28,-26,-41,-26,-36,0,-30,-10,-22,-16,0,37,-30,11,28,0,-20,10,21,0,-4,-24,11,-15,15,72,23,21,-34,14,25,-49,47,-31,18,0,-18,-29,-3,17,14,20,13,-15,40,24,-21,-13,19,29,6,-9,8,24,25,36,22,-32,-15,-13,-5,2,-24,28,18,19,10,-15,-29,-13,25,30,-14,-13,5,-21,-20,23,-26,0,-23,6,-8,16,-52,3,27,-30,-18,-43,3,-7,13,-13,33,-49,-15,26,-10,-16,-19,70,-23,18,53,20,11,13,14,-42,0,-9,-27,22,21,18,45,-14,10,7,1,-80,-18,5,19,-19,19,-5,-32,15,8,-18,-7,-21,13,-4,19,-14,104,23,-20,-2,-18,20,15,36,-5,63,13,9,-20,23,22,-14,-30,29,-18,-20,-31,-24,9,-16,-13,31,22,67,9,10,-36,-21,12,36,8,14,-39,38,4,-9,-22,-23,-20,16,-13,12,12,-20,-43,-22,20,24,0,-30,-19,-17,9,21,14,25,19,24,51,-22,0,46,7,-26,19,-21,-18,24,0,19,-5,-48,16,41,-97,-31,1,76,17,18,-20,0,-33,-58,-68,21,-37,17,-55,79,23,22,-1,-95,-66,-29,-26,13,-10,-13,7,-6,24,2,9,0,-33,0,15,11,0,-21,27,11,-27,7,-26,13,21,35,-26,16,-15,-41,34,-17,10,14,-17,50,3,0,24,-39,-11,-13,9,12,-24,-12,17,18,16,29,0,-14,-20,-18,6,52,76,-46,-57,-2,-32,-28,-32,8,19,-21,-5,85,15,-6,11,6,-23,18,-14,-5,22,-32,87,-12,-27,14,-12,19,60,-75,17,0,-43,-18,-20,-28,19,6,27,-46,12,-57,29,25,20,-16,-22,-18,-23,-5,-18,17,11,-16,-3,26,13,10,-15,2,64,-6,34,-37,0,22,13,-11,24,11,22,17,19,-52,-13,-15,-2,11,-27,15,-12,5,26,1,32,-20,-12,-7,-23,-12,36,-6,-20,-1,-60,2,-32,-25,0,0,14,-18,15,0,11,13,28,13,-21,-10,-11,16,15,-31,-41,0,6,16,7,-16,28,29,1,-3,38,-7,15,27,-34,-27,-11,18,13,-18,-8,8,-8,18,-38,-17,-8,14,-34,-16,-24,24,10,25,-19,10,-31,-20,-35,0,19,-16,9,50,50,66,17,-34,-14,49,63,11,-24,12,10,-12,-34,-12,-31,-20,-21,-15,19,24,-15,29,6,4,-31,-29,16,15,37,-25,0,28,-39,19,36,-23,-29,14,23,33,-5,-26,-1,-16,37,33,21,-23,-25,6,-39,-14,-11,27,-14,40,19,-26,-39,-10,4,12,-9,-28,-26,11,33,-1,115,10,3,-11,24,-8,-16,36,-67,22,-52,-21,15,12,-29,12,-16,-6,-48,-83,-24,0,-77,-12,11,6,-21,-17,102,7,10,-61,21,13,-24,0,45,0,-48,21,-19,30,5,25,-105,-47,34,7,-6,19,-19,-6,1,-32,-17,-20,12,-8,-23,13,-20,14,-10,-10,-4,10,54,30,30,-11,21,16,17,13,-13,-9,-9,28,-15,-6,0,-38,19,-28,6,-10,-17,28,-12,33,-12,-102,-18,4,16,14,-12,66,9,-14,-11,-24,7,-5,36,12,17,-8,-18,0,-30,42,-10,12,-22,12,30,0,-71,-37,-20,-3,-55,-23,0,12,-23,-54,-36,-20,19,-15,61,-26,-15,23,-11,-25,9,17,9,-15,0,30,-69,-29,-23,-17,-31,-16,30,6,0,63,12,-15,-11,0,12,-10,13,-15,-17,-8,18,0,5,12,-24,0,12,19,30,-21,-1,-18,-32,-8,35,-2,-7,28,31,-12,45,0,-12,3,-4,0,0,0,14,-23,-11,13,-14,-23,-3,-12,11,-16,16,15,-18,-28,28,13,18,-74,25,25,-25,9,-29,-10,-22,-1,28,6,0,-12,-12,65,-37,0,-4,0,-15,11,-69,-19,-6,47,-10,-19,24,-25,24,6,-19,0,-22,-60,-26,23,8,-18,-22,14,-21,0,-20,-27,-10,41,91,2,9,22,14,28,0,-24,-34,50,-5,-13,11,-28,26,-20,21,-26,22,-20,-3,-31,17,-18,10,10,117,-12,-13,9,-34,1,30,14,6,-16,29,0,14,25,-12,11,-5,-23,17,11,16,0,-5,42,30,15,-22,-14,-19,-20,-11,-31,41,-22,2,7,31,-5,-15,11,-4,7,13,-10,20,-20,40,-16,-61,-17,-30,31,-19,-14,31,20,-12,-16,61,-28,-13,-16,8,-9,76,29,20,46,4,18,-12,36,0,11,25,-12,-31,42,14,-14,18,-28,11,-14,20,-31,-11,12,-19,-38,-7,25,29,18,0,21,8,-7,-17,-7,-28,-8,-33,-1,5,21,17,-22,0,59,30,-18,-12,-19,-22,25,19,-27,-14,-58,-11,30,-8,-23,26,20,15,0,-65,-12,2,22,22,49,16,9,24,24,28,8,-40,15,23,46,49,-12,-18,-25,10,70,-18,0,-19,-17,-12,21,15,66,8,7,-6,20,13,-17,26,4,-31,19,-6,-5,-39,-18,-7,0,9,-11,18,-35,-12,14,-15,3,-31,6,15,-19,-21,116,8,-26,-26,19,31,-21,-15,29,0,28,48,31,-30,-11,-29,12,-12,4,-24,12,13,-10,-63,19,28,-57,-6,-126,21,-30,-11,53,-14,30,0,11,-3,-3,-12,22,11,9,-43,-24,27,10,16,51,0,-16,21,-28,-42,0,7,-15,-9,-11,-30,-66,-21,40,23,0,15,-1,23,-26,-21,90,-20,-15,80,-13,32,30,11,-17,-30,-9,-20,-25,21,45,-29,-26,20,-2,17,7,0,-13,0,10,-16,0,15,11,-19,-14,-1,-29,-17,-19,-35,-12,-46,5,-8,25,-17,16,10,6,-20,-13,34,-35,-5,6,-9,-2,13,17,46,15,16,32,20,5,14,8,-16,-40,12,-19,-17,-8,-8,-27,18,15,-33,12,-19,-15,20,-19,-36,-30,13,-12,26,-10,-31,7,-11,-21,19,25,40,-19,13,-12,-55,-14,-18,-41,23,-9,13,24,-31,-29,3,40,-32,11,27,-20,0,-43,18,22,10,17,1,-15,-9,-27,30,18,-18,-17,-61,-1,17,-14,27,-44,-16,-30,12,19,18,-22,74,-6,-40,18,0,-31,69,0,11,-17,-29,12,14,-29,-30,-5,-32,35,-25,-17,-10,29,7,-34,16,19,-24,0,0,49,22,16,3,-15,40,7,10,14,-25,26,-1,22,-76,-25,-42,-17,-26,-48,-93,0,51,-15,30,-44,-24,-38,27,-12,-45,-19,53,-20,15,-4,8,-25,25,1,-16,13,50,-13,-6,-13,-14,15,21,14,-18,-5,20,-27,-21,-13,-13,18,24,-17,-3,23,-10,25,8,-20,-24,25,29,-21,4,-14,9,23,-19,0,2,-18,0,5,19,-16,-16,38,-36,-15,-15,-8,18,6,-11,19,41,-15,17,11,-33,12,-15,-15,-82,-26,-37,14,18,-15,2,21,0,-2,-20,-18,8,14,26,-10,13,-46,5,-24,2,2,-28,-38,36,-15,-6,-31,34,-2,14,15,-17,17,-18,-6,-19,14,-12,-20,-48,26,16,-23,-13,29,22,-25,30,-27,40,18,-17,-6,29,3,-27,-45,-32,1,20,-7,26,-10,10,-34,-49,19,15,-20,-24,-33,-19,-26,-11,-13,16,121,-14,-23,0,-32,22,-32,26,-19,-24,-21,24,-23,-3,-21,-24,0,-10,-16,31,-19,0,14,26,12,26,-4,-18,-18,16,28,57,0,30,-16,-41,-8,7,17,0,-4,-20,24,17,-17,-15,-13,20,13,-51,-15,-36,-17,15,-14,32,-63,19,-16,19,17,-50,23,29,-24,-73,13,-13,-20,14,13,0,5,28,-2,-10,49,-5,15,-18,-13,20,-13,31,31,33,-56,18,-11,12,-27,3,-23,-19,26,-32,17,14,-24,-22,-19,31,-12,-3,-11,9,25,18,-9,17,33,32,-25,-17,-9,0,63,-18,-16,4,-1,37,-22,-15,-1,95,-26,-17,16,20,45,-9,-22,-48,-11,26,25,-29,29,48,29,31,0,30,9,20,15,0,-36,33,-13,-20,-2,19,-11,-21,0,5,23,-11,15,-16,-64,-23,-23,23,-13,-21,55,-45,34,-17,0,19,26,3,-17,-13,-20,-12,15,-37,-29,21,12,-21,-37,-6,8,-7,-19,-28,-38,-20,29,15,13,6,-2,21,-26,-19,-20,-10,15,29,13,-27,-31,14,13,-5,22,20,-24,27,0,21,-5,8,-17,50,3,-28,29,16,43,-3,7,-14,13,-34,65,18,-24,10,15,21,-67,33,-17,-53,-20,-10,-15,-15,34,0,7,26,-21,-17,-18,-50,11,-10,-8,0,91,19,-6,-19,19,-23,5,31,-16,-8,18,9,21,-15,2,-19,13,-111,-23,20,1,17,-19,-15,-33,14,-60,-13,-9,21,-24,-21,16,30,-24,22,21,31,25,-15,13,13,-29,-23,-56,-3,-17,32,21,-12,-35,-16,-12,39,-28,-2,10,18,22,20,-19,13,-11,-14,22,44,19,-18,-22,2,28,19,15,0,-22,-7,-24,-16,-20,-43,23,0,-41,-7,22,-18,27,19,-23,0,-18,4,52,-17,-44,108,30,1,-76,-17,-19,20,0,33,54,58,-20,44,-16,56,-95,-26,-21,3,105,71,47,26,-12,11,13,-6,7,-23,-2,-5,0,39,3,-16,-12,0,20,-29,-10,26,-7,26,-12,-21,-31,31,-16,15,41,-28,19,-9,-14,16,-45,-10,0,-21,45,12,19,-10,-14,31,12,-19,-16,-17,-31,-1,15,18,15,-4,-50,-51,41,52,4,38,26,32,-8,-14,19,5,-63,-15,7,-11,-7,32,-15,13,3,-22,26,-66,12,28,-15,13,-19,-52,91,-18,0,67,17,19,30,-19,-8,-19,31,-14,52,-29,-26,-20,15,21,19,21,6,22,-17,-10,18,4,-24,-12,-12,13,-3,-57,6,-26,48,0,-21,-13,12,-22,-10,-24,-18,-23,43,5,16,3,-11,25,-15,13,-5,-28,-1,-29,18,11,14,23,14,-30,6,24,1,50,0,30,27,-10,0,-13,17,-16,0,-10,-14,-30,-14,22,12,10,-16,-14,33,39,0,-6,-29,-6,18,-24,-24,-1,2,-38,6,-16,-31,37,22,13,-18,-13,20,8,-8,10,-16,42,18,8,-19,34,19,24,-25,-9,-25,19,-10,30,21,36,0,-20,18,-9,-48,-85,-42,-11,38,15,-35,-50,-11,24,-14,-11,12,36,9,28,20,21,16,-21,-23,14,-33,-6,7,31,26,-18,-17,-29,32,0,-32,38,-20,-40,24,29,-15,-20,-31,4,27,3,15,-43,-28,-21,21,24,-8,38,16,13,-30,16,-41,-20,29,38,11,-4,-18,11,27,26,-10,-35,0,-118,-14,-4,21,-21,8,16,-37,88,-19,61,20,-13,-13,28,-10,14,6,58,77,24,0,78,17,-8,-12,21,16,-79,-13,-13,70,-20,-12,21,5,-43,0,48,-17,14,-26,-5,-24,95,38,-31,-5,8,-19,20,7,-4,38,17,20,-12,8,23,-13,19,-11,10,10,4,-11,-47,-27,-75,14,-22,-16,-15,-15,14,9,7,-25,19,5,0,41,-16,32,-5,0,20,-29,17,-20,13,98,19,-4,-15,-17,12,-70,-8,11,13,24,-6,5,-37,-11,-16,6,18,0,27,-34,7,-14,24,-9,-25,0,71,30,19,2,41,23,-1,-15,31,53,51,18,-21,12,-41,25,10,-23,12,37,-8,-15,-10,15,0,-28,91,38,24,21,31,16,-23,-12,0,-60,-12,19,13,0,-12,13,-13,15,18,9,-17,0,-4,-10,25,0,-13,-14,-27,21,1,20,33,9,-32,4,5,-28,-24,12,-40,0,12,-4,3,0,0,0,-15,23,11,-12,15,23,3,13,-11,16,-19,-11,21,28,-29,-14,-18,85,-27,-27,22,-8,32,10,25,0,-30,-5,0,13,12,-66,38,0,4,0,16,-10,61,18,8,-41,10,19,-23,22,-24,-5,18,0,20,63,29,-27,-6,17,23,-14,19,0,23,31,12,-39,-76,1,-10,-24,-12,-21,0,21,31,-43,4,13,-11,33,-26,20,-22,27,-22,34,1,31,-15,18,-9,-11,-97,10,13,-8,38,-6,-24,-13,1,14,-25,0,-14,-23,6,-10,5,23,-12,-12,-21,0,5,-40,-26,-20,24,14,24,17,14,33,-29,24,1,-7,-26,7,14,-11,3,-9,-14,9,-15,20,-40,15,63,17,29,-28,18,14,-32,-19,10,18,-68,27,15,16,-8,10,-36,-28,-20,-48,-9,-18,12,-37,0,-11,-25,12,34,-44,-13,14,-18,27,30,17,-28,39,10,-12,18,40,8,-22,-28,-17,0,-26,-9,9,15,9,42,8,72,1,-6,-24,-17,25,0,-52,-29,19,12,20,21,-22,-13,25,14,71,10,-26,9,21,-26,-18,-16,2,69,13,-3,-22,-18,-50,-21,-7,-45,-17,-23,1,64,-15,-27,-39,0,12,25,23,-11,-59,18,2,22,17,22,-17,-13,-60,-7,-6,4,-22,-12,18,-28,-3,38,-19,8,5,35,20,11,1,-6,11,-22,36,12,-14,15,-1,31,-6,-14,19,19,-93,-8,26,26,-20,-34,27,19,-28,0,-30,-35,-26,29,14,29,-12,12,0,21,-13,-16,10,64,-21,-30,70,5,125,-20,26,12,-46,16,-32,0,-10,0,7,16,-21,-9,-24,44,24,-26,-11,-16,-47,0,16,-23,26,42,0,-6,16,10,11,36,65,20,-33,-25,0,-15,6,-24,27,20,-64,20,17,-29,13,-30,-24,-6,17,25,10,24,26,-20,-41,27,31,-17,6,-17,-6,0,13,-2,-11,15,0,-13,-6,19,13,4,46,15,24,33,11,45,3,8,-27,12,-15,-10,-5,19,15,-30,34,5,-6,11,2,-12,-18,-89,-14,-15,-32,-22,-4,-15,-9,15,32,-14,18,14,6,10,25,-26,-14,32,-13,18,16,-22,19,42,31,-13,10,-21,10,31,-7,5,20,-19,-17,-32,20,-16,10,62,13,21,48,-21,3,-7,-25,41,30,-2,-36,35,-11,-27,22,0,51,-17,-22,-11,-14,-3,15,9,25,-31,-17,17,14,67,2,-16,15,-31,59,17,41,-9,-20,-20,24,-42,6,42,-20,0,36,-44,0,-10,18,32,-12,-13,28,43,5,35,-33,20,22,9,-31,-6,42,-11,-16,24,0,0,-50,-21,-15,-3,14,-30,-7,-10,-15,23,-22,1,-24,73,22,47,30,19,47,115,0,-65,20,-18,40,22,32,-27,14,54,42,-44,17,-12,4,-8,24,-18,2,11,-14,-54,14,5,12,14,-15,-19,-11,18,5,-20,30,24,14,13,-17,-23,20,4,-22,10,-25,-7,18,26,-32,-27,18,-7,14,-9,-26,16,0,0,21,0,-7,-23,15,19,-38,37,11,29,9,-19,-5,10,-24,-42,16,-16,-12,33,-12,15,16,89,22,36,-14,-18,16,-1,-25,0,14,20,18,-8,-23,-29,9,-18,51,-6,48,-2,0,32,67,-29,15,9,48,-28,3,-18,-18,21,-20,23,7,21,-15,8,25,57,-30,-22,23,16,-36,-21,31,-41,28,-37,-19,26,8,-27,-10,25,30,36,9,-27,11,-30,18,-10,38,60,-20,-10,23,25,45,30,34,15,19,-16,-90,17,24,0,49,-18,34,-23,13,26,22,-26,21,-10,36,26,-22,13,17,-25,18,-1,-21,-29,-15,-28,6,17,17,0,-29,-66,0,-24,19,37,14,-11,-12,0,66,19,-15,-14,24,16,24,-21,-22,59,21,29,21,-19,23,-36,58,-29,18,-20,-17,60,-22,-28,28,67,-13,14,20,-14,-12,0,-6,-46,-10,10,-49,13,-16,18,24,-24,14,-32,-30,-39,60,-20,12,-13,33,-14,41,21,-26,36,-25,-15,20,23,19,-39,16,11,15,-10,-27,-16,10,-20,-37,-27,25,18,7,1,-69,20,14,-2,2,-35,27,19,8,-73,23,16,-19,-24,-50,14,23,46,13,-26,-21,40,-33,-36,-30,-41,-9,-23,-14,-20,-16,6,47,-33,12,39,6,-17,11,20,0,-28,-24,12,-17,19,83,23,22,-41,16,34,-50,56,-40,20,15,-19,-31,-5,22,13,21,14,-14,40,27,-28,-15,22,33,3,-11,15,25,32,36,20,-41,-19,-13,-7,4,-25,29,18,23,13,-18,-35,-12,37,28,-21,-13,4,-20,-22,23,-23,-1,-23,10,-13,15,-45,2,28,-30,-17,-53,5,-9,17,-15,34,-46,-26,25,-13,-18,-20,74,-28,25,51,21,20,14,13,-44,-6,-19,-28,22,21,14,53,-19,11,7,-1,-93,-18,-8,21,-20,22,-7,-32,18,18,-19,-17,-21,14,-7,20,-14,89,28,-31,0,-20,28,20,39,-43,71,12,9,-20,25,25,-14,-31,23,-14,-23,-32,-28,25,-20,-13,26,21,76,17,32,-37,-21,14,29,29,14,-41,38,56,-11,-25,-21,-16,16,-13,13,11,-18,-42,-25,19,21,-8,-25,-23,-15,8,20,20,24,29,21,47,-20,0,51,16,-29,37,-22,-19,26,0,27,-1,-55,23,35,-89,-30,9,89,17,22,-18,0,-57,-43,-84,22,-38,26,-51,76,23,28,23,-81,-59,-36,-27,27,-12,-19,-4,-20,20,4,14,-12,-42,-16,12,20,0,-22,25,15,-26,7,-26,13,17,38,-27,18,-16,-41,43,-19,10,16,-23,60,24,0,23,-39,-11,-12,10,21,-27,-12,22,20,18,30,32,-20,-20,-19,2,59,88,-54,-70,8,-40,-28,-32,9,18,-22,-6,87,18,-17,12,16,-26,25,-20,-6,25,-38,96,-14,-25,14,-17,25,60,-82,16,-22,-46,-35,-21,-38,14,8,36,-48,16,-56,39,26,22,-17,-27,-19,-23,-10,-17,17,13,-16,-5,33,13,14,-20,2,73,-25,35,-38,-4,24,18,-12,35,11,26,25,25,-63,-19,-14,0,11,-25,16,-15,7,28,11,41,-16,-12,-22,-24,-19,35,-8,-21,-9,-69,-7,-31,-28,9,18,18,-16,16,4,18,20,29,14,-23,-20,-11,18,14,-33,-50,0,7,53,10,-15,26,34,-7,-5,43,-11,21,36,-33,-32,-11,17,14,-27,-10,3,-9,14,-32,-15,-11,23,-36,-22,-29,24,13,57,-21,11,-27,-17,-37,-1,20,-15,12,53,70,81,12,-35,-13,42,72,10,-24,17,10,-12,-40,-19,-30,-19,-20,-18,16,18,-14,35,10,11,-31,-34,19,20,38,-27,0,30,-41,18,42,-31,-29,14,25,32,-11,-31,-37,-18,54,34,21,-24,-29,12,-45,-20,-11,31,-15,47,21,-27,-37,-11,1,26,-14,-21,-25,20,27,8,86,17,-4,14,23,-8,-16,39,-65,22,-48,-18,16,17,-37,14,-20,-10,-63,-51,-25,0,-70,-16,16,0,-17,-19,121,7,19,-67,20,14,-24,4,49,0,-59,24,-28,32,10,34,-124,-46,33,16,-12,26,-18,-8,-20,-39,-17,-33,13,-10,-27,18,-21,15,-13,-11,-11,15,52,31,27,-12,24,17,18,21,-14,-9,-14,34,-17,-12,0,-46,21,-53,10,-33,-21,27,-24,52,-15,-94,-19,3,24,17,-12,84,10,-12,-21,-26,10,-4,39,13,19,-15,-20,0,-30,52,-15,16,-26,14,30,0,-70,-46,-23,24,-51,-23,53,20,-31,-69,-35,-25,23,-60,66,-22,-31,21,-12,-25,13,17,11,-19,1,35,-75,-27,-26,-21,-31,-21,39,13,-3,74,17,-17,-13,-17,18,-11,20,-16,-20,-9,16,1,9,11,-19,23,16,26,30,-21,-10,-18,-35,-8,37,-33,-15,31,40,-14,46,0,-12,5,-8,-4,-36,0,18,-26,-16,20,-17,-25,-5,-16,18,-21,17,16,-31,-33,26,15,21,-80,27,26,-24,3,-27,-12,-29,-1,34,9,0,-16,-16,71,-33,-1,-4,0,-15,25,-60,-21,0,41,-15,-20,27,-24,32,8,-17,5,-25,-54,-24,28,-7,-20,-23,19,-21,3,-21,-28,-10,44,112,-10,8,22,18,25,0,-34,-42,49,-7,-17,10,-35,27,-21,21,-29,23,-31,-14,-46,18,-22,14,11,126,-20,-11,11,-41,-38,41,13,7,-20,30,0,15,28,-12,16,2,-18,22,13,20,-12,-4,40,32,20,-21,-13,-25,-24,-14,-37,40,-23,-2,8,34,-2,-20,10,-3,19,14,-11,16,-19,45,-22,-61,-32,-35,22,-20,-13,26,22,-15,-18,54,-32,-14,-21,12,-8,94,29,21,52,12,17,-15,42,0,12,21,-12,-38,47,15,-15,19,-28,-17,-18,29,-31,-13,19,-18,-37,-11,28,28,22,0,33,10,-2,-21,-10,-31,-12,-7,-15,15,29,19,-20,0,54,29,-28,-11,-24,-20,34,54,-35,-17,-67,-19,25,-13,-22,25,20,19,-1,-80,-14,-4,20,18,52,32,7,27,33,33,3,-45,20,22,82,48,-15,-38,-28,13,77,-19,-17,-19,-21,-33,34,33,82,32,9,-10,19,18,-18,24,14,-33,21,-7,-10,-43,-24,-26,13,-3,-12,19,-41,-9,13,-19,8,-30,5,14,-22,-23,126,13,-19,-28,19,30,-28,-13,28,-15,27,46,31,-33,4,-30,15,-13,6,-26,15,16,-14,-59,20,36,-57,-11,-122,22,-32,-13,64,-13,35,0,12,6,-19,-14,23,12,48,-48,-29,30,2,15,58,-5,-17,20,-31,-50,0,12,-13,-12,-13,-33,-79,-26,56,24,25,16,-7,24,-24,-20,96,-31,-17,105,-17,29,33,15,-24,-30,-9,-17,-22,23,56,-35,-24,26,-18,16,10,0,-16,19,18,-12,2,23,15,-22,-14,-16,-26,-22,-23,-27,-14,-47,-5,-16,25,-20,23,10,6,-19,-18,46,-34,-17,5,-10,2,13,17,107,16,18,42,24,11,23,10,-14,-45,21,-22,-21,-13,-10,-27,22,15,-28,14,-19,-15,24,-18,-37,-32,14,-21,32,-10,-33,12,-6,-20,24,32,43,-17,8,-15,-67,-15,-18,-40,21,-25,19,28,-67,-32,17,39,-33,12,32,-25,-4,-49,22,27,15,12,9,-20,-11,-29,80,17,-15,-22,-59,-17,18,-16,29,-57,-23,-23,11,17,18,-23,84,-6,-49,16,0,-19,54,0,16,-15,-27,13,20,-31,-36,-8,-43,45,-32,-17,-7,31,12,-35,21,21,-24,0,20,55,29,21,7,-16,45,9,11,14,-24,31,-4,20,-70,-23,-38,-29,-36,-44,-110,0,49,-28,37,-48,-25,-43,30,-15,-52,-29,59,-24,14,-5,8,-27,24,23,-24,14,49,-16,-6,-17,-15,19,20,22,-15,-7,23,-33,-20,-15,-12,21,24,-23,-7,26,-10,30,8,-14,-21,24,36,-22,7,-15,15,29,-21,0,17,-21,19,19,22,-20,-18,45,-42,-14,-16,-7,19,13,-9,61,57,-16,18,16,-35,12,-19,-16,-91,-36,-36,20,24,-18,5,26,0,-15,-21,-18,8,21,30,-10,15,-47,7,-33,2,0,-29,-54,46,-16,-8,-42,35,-4,22,21,-19,22,-26,-7,-17,14,-8,-24,-54,26,23,-24,-14,32,20,-31,37,-28,38,20,-25,-7,36,11,-28,-31,-38,-4,25,-14,31,-13,10,-39,-58,18,14,-22,-25,-39,-27,-33,-13,-17,14,124,-17,-25,0,-53,19,-34,24,-17,-27,-22,25,-21,17,-30,-25,22,-14,-19,25,-18,0,21,32,15,23,-7,-19,-18,-2,29,60,0,29,-19,-43,-14,11,13,0,-60,-19,33,14,-23,-15,-23,18,24,-57,-16,-35,-19,22,-19,34,-62,26,-17,19,18,-59,24,27,-26,-86,14,-13,-19,15,12,-2,7,38,9,-11,55,-7,19,-18,-20,28,-14,29,37,42,-54,19,-12,12,-31,19,-39,-22,24,-32,23,16,-21,-22,-18,46,-14,-8,-15,10,28,19,-11,17,40,40,-24,-18,-8,0,76,-21,-15,3,-3,36,-28,-19,-11,104,-26,-16,17,22,44,-13,-23,-53,-12,27,20,-42,35,42,35,37,2,24,14,18,15,-21,-47,36,-13,-31,-10,16,-11,-20,0,28,23,-12,18,-21,-66,-23,-25,30,-15,-29,54,-55,42,-19,-10,20,28,5,-21,-11,-21,-13,13,-38,-28,28,14,-25,-41,-7,11,-14,-19,-35,-38,-19,36,19,14,7,-4,21,-27,-19,-24,-14,19,35,12,-39,-30,21,13,-4,20,22,-24,24,1,21,-10,12,-19,50,2,-29,28,15,51,-5,9,-17,14,-35,67,29,-25,12,18,19,-65,38,-23,-54,-22,-16,-18,-15,39,-4,16,27,-22,-17,-12,-59,16,-11,-7,2,108,18,7,-21,18,-23,7,31,-19,-17,20,18,21,-16,5,-20,13,-94,-28,30,-2,19,-25,-19,-36,52,-68,-12,-9,20,-27,-25,16,30,-18,20,22,31,30,-28,17,13,-24,-23,-58,-23,-36,33,20,-14,-28,-34,-12,44,-30,-49,11,21,19,16,-19,14,-12,-12,21,43,23,-18,-20,9,24,23,13,-7,-21,-16,-24,-24,-17,-49,21,0,-45,-16,24,-33,29,21,-26,-1,-28,-2,61,-24,-39,117,29,-11,-88,-18,-23,18,0,59,42,65,-20,47,-24,55,-93,-25,-27,-20,87,68,51,29,-25,13,19,6,20,-18,-3,-12,2,40,13,-13,-20,0,21,-27,-13,24,-7,25,-12,-18,-35,34,-18,16,39,-38,21,-8,-15,22,-56,-28,0,-21,45,11,16,-11,-21,33,12,-24,-18,-19,-35,-31,22,18,16,-1,-61,-51,51,64,-9,48,26,34,-10,-14,20,6,-59,-18,17,-12,-15,35,-21,19,4,-26,33,-65,14,25,-14,17,-26,-56,103,-16,5,71,33,21,38,-14,-9,-24,36,-15,48,-41,-27,-24,15,26,20,20,12,19,-18,-12,17,6,-33,-14,-16,18,-4,-70,25,-27,47,2,-24,-16,13,-33,-11,-27,-27,-29,52,6,15,0,-12,23,-16,14,-7,-32,-15,-36,15,11,25,24,21,-31,8,28,10,54,8,29,30,-20,-27,-17,15,-17,-8,-19,-19,-31,-15,23,20,11,-18,-13,33,47,0,-8,-66,-9,17,-22,-25,6,5,-39,9,-21,-35,36,28,14,-18,-13,29,10,-5,10,-13,35,16,11,-22,35,28,29,-25,-12,-64,23,-11,26,18,38,0,-20,17,-11,-51,-90,-43,-9,41,15,-32,-49,-18,24,-19,-11,13,46,17,28,21,22,18,-19,-17,14,-40,-11,0,29,33,-21,-20,-30,36,0,-34,39,-19,-44,32,28,-15,-21,-31,12,29,43,17,-58,-28,-21,22,27,-14,43,24,12,-33,17,-46,-21,32,36,12,0,-30,16,20,24,-17,-30,-8,-85,-20,2,-41,-20,8,14,-38,91,-18,52,18,-14,-18,34,-12,18,10,65,49,24,0,68,23,-15,-3,17,18,-84,-9,-23,79,-19,-13,23,-2,-51,0,56,-19,21,-29,-11,-32,111,42,-30,-15,17,-24,18,8,17,49,18,34,-12,9,27,-17,21,-12,13,12,9,-16,-46,-26,-75,15,-24,-16,-16,-22,15,9,13,-30,21,10,0,50,-19,55,-12,25,25,-30,26,-31,17,90,19,-3,-18,-20,12,-84,-9,12,23,26,-9,4,-41,-11,-17,16,21,0,30,-56,12,-18,29,-11,-25,0,70,39,23,-25,36,23,-58,-24,41,67,50,23,-25,72,-44,21,27,-22,13,36,-11,-15,-11,20,1,-35,105,37,26,27,30,20,-30,-19,3,-69,-17,21,14,0,-18,13,-20,15,22,11,-16,0,-10,-9,21,-49,-17,-21,-26,20,4,20,36,9,-34,30,14,-32,-31,14,-40,0,12,-3,8,11,30,0,-18,27,18,-18,18,25,4,16,-17,21,-19,-13,32,31,-27,-16,-21,94,-29,-28,22,-11,27,12,31,7,-29,-8,0,16,15,-74,34,1,4,0,16,-24,48,20,0,-38,15,20,-27,22,-32,-7,16,0,23,53,29,-31,5,19,22,-18,19,-2,24,32,12,-43,-92,15,-9,-24,-15,-20,0,31,39,-47,7,16,-10,38,-26,21,-22,30,-26,47,8,44,-16,22,-13,-11,-113,18,12,-11,42,35,-33,-12,2,17,-26,0,-15,-24,10,-13,-1,17,-21,-12,-23,11,5,-37,-28,-27,24,14,31,22,15,40,-29,24,4,-7,-29,2,18,-10,2,-20,-15,10,-13,19,-45,21,61,32,33,-21,20,13,-27,-21,15,20,-71,29,15,20,-12,9,-41,-29,-20,-54,-15,-18,15,-42,0,-11,-22,12,38,-48,-14,15,-19,28,76,22,-37,38,12,-17,18,38,12,-24,-28,-21,-1,-40,-12,2,19,14,46,12,36,12,-14,-34,-19,24,0,-45,-29,28,11,25,19,-34,-57,30,17,80,22,-20,15,20,-25,-19,-20,1,82,15,3,-21,-15,-57,-27,-6,-44,-26,-28,7,79,-20,-25,-60,12,15,64,25,-13,-63,19,19,23,20,52,-33,-33,-81,-28,-8,10,-22,-17,18,-27,-12,38,-20,9,10,40,26,28,-11,2,14,-24,44,8,-13,19,-8,30,-6,-14,23,20,-87,-14,19,27,-20,-33,35,16,-27,16,-30,-32,-26,34,-2,31,-14,14,-5,24,-16,-18,14,59,-23,-42,76,12,119,-21,29,13,-58,14,-38,0,-11,-6,17,19,-21,-10,-50,48,29,-30,-1,-15,-53,4,17,-22,27,51,0,-12,14,12,14,40,74,25,-41,-25,-43,-16,12,-26,26,19,-62,31,18,-32,17,-29,-27,-10,25,26,10,20,23,-22,-52,33,28,-22,16,-16,-10,0,16,-27,-19,11,-1,-18,-14,22,13,17,48,23,29,24,13,46,19,17,-26,13,-22,-10,-5,17,21,-37,33,19,-5,12,-4,-12,-17,-115,-16,-18,-42,-27,-8,-24,-11,14,37,-23,21,19,11,13,25,-28,-13,28,-15,17,17,-25,18,45,35,-13,18,-27,10,31,-13,6,18,-24,-23,-35,20,-20,13,71,14,21,49,-19,20,-17,-30,77,35,-22,-38,34,-11,-32,22,1,57,-21,-27,-16,-10,-7,20,13,26,-57,-15,14,19,63,16,-17,17,-32,68,23,33,-8,-17,-20,26,-49,6,49,-18,0,25,-34,0,-13,16,32,-14,-20,31,53,8,45,-38,29,21,6,-32,-11,43,-15,-19,24,0,-26,-56,-27,-21,-7,15,-30,-9,-11,-15,25,-27,4,-22,74,21,44,44,29,42,126,0,-57,33,-22,43,25,38,-31,18,59,84,-40,20,-11,5,-8,26,-18,-27,24,-14,-51,17,6,18,14,-18,-18,-20,16,7,-22,37,25,16,13,-20,-24,27,7,-26,10,-29,-7,14,21,-31,-33,20,-9,14,-10,-32,17,0,-15,24,-20,-20,-25,20,21,-44,40,13,36,9,-20,-14,8,-68,-59,17,-16,-18,36,-13,18,16,99,28,35,-19,-24,19,-2,-30,1,29,18,17,-9,-26,-27,8,-21,46,-7,48,-4,-14,29,85,-32,17,10,60,-24,4,-25,-23,19,-26,32,8,14,-17,2,25,57,-25,-25,20,17,-36,-17,33,-44,27,-32,-17,30,10,-28,-18,23,8,38,20,-30,14,-31,19,-10,41,66,-17,-11,24,22,53,36,34,18,25,-13,-81,18,25,-15,68,-14,34,-18,9,26,26,-27,18,-34,42,23,-62,17,16,-16,17,-4,-25,-36,-17,-20,14,17,16,11,-30,-58,-1,-21,22,40,17,-14,-8,0,58,16,-28,-10,29,16,32,-18,-35,58,20,24,19,-23,29,-35,55,-37,18,-20,-16,62,-20,-24,26,74,-14,13,16,-14,-10,24,-9,-47,-15,12,-47,21,-19,16,30,-30,14,-27,-28,-39,55,-18,11,-13,31,-39,47,23,-21,30,-30,-18,15,23,21,-40,19,15,20,-12,-27,-16,13,-18,-35,-31,19,16,10,15,-77,23,12,-19,11,-27,45,20,13,-68,20,15,-17,-20,-34,18,23,50,13,-27,-14,51,-37,-29,-28,-41,4,-14,-18,-18,-16,47,43,-32,13,43,19,-13,11,17,0,-40,-24,13,-17,23,63,22,24,-44,16,38,-54,55,-47,19,19,-18,-34,-10,26,9,19,15,-11,38,26,-31,-14,26,35,8,-14,21,22,32,30,17,-48,-22,-12,-9,9,-21,26,15,26,18,-19,-41,-10,39,22,-25,-13,6,-15,-22,20,-17,1,-18,16,-18,24,-44,-3,25,-29,-15,-57,9,-11,19,-18,28,-33,-36,26,-14,-18,-22,66,-27,25,47,21,27,18,12,-43,0,-27,-27,19,21,7,67,-30,10,7,-4,-98,-15,-30,23,-18,23,-9,-27,21,28,-17,-30,-18,14,-17,19,-11,64,31,-42,6,-19,30,23,35,-63,81,12,10,-16,27,24,-12,-30,13,-10,-23,-27,-26,44,-22,-15,18,17,84,31,41,-38,-19,14,23,41,11,-38,39,54,-15,-25,-18,-13,13,-13,13,8,-15,-39,-24,16,21,-12,-17,-23,-10,0,16,25,21,33,15,35,-15,-18,47,23,-26,45,-20,-24,26,-10,29,5,-54,32,21,-71,-25,16,102,17,24,-13,0,-73,-37,-116,21,-32,31,-41,54,35,27,22,-59,-46,-35,-22,37,-13,-26,-16,-25,15,8,28,-51,-43,-30,9,27,1,-20,21,18,-20,8,-24,11,10,33,-23,21,-17,-37,52,-20,9,18,-28,62,32,13,20,-35,-9,-19,12,27,-29,-12,21,18,19,33,47,-28,-22,-19,-10,54,98,-55,-76,26,-39,-22,-27,10,14,-21,-7,84,20,-33,12,27,-23,33,-23,-7,35,-35,98,-16,-19,14,-21,30,58,-76,13,-53,-51,-50,-19,-44,10,10,40,-50,17,-52,45,25,23,-15,-37,-20,-20,-17,-15,15,14,-15,-8,35,12,19,-22,8,91,-35,33,-35,35,23,20,-13,38,10,29,37,29,-69,-29,-9,8,14,-22,16,-16,9,26,12,47,-13,-11,-31,-28,-28,29,-11,-19,-26,-77,-18,-27,-26,22,65,21,-12,16,0,21,35,26,14,-25,-35,-10,17,12,-36,-52,0,8,64,14,-13,21,32,-14,-9,45,-14,22,46,-28,-31,-11,15,12,-30,-11,-42,-8,12,-19,-12,-14,38,-37,-23,-36,21,16,86,-20,12,-21,-9,-33,39,20,-14,18,47,75,92,12,-31,-10,29,80,-19,-20,20,9,-10,-40,-20,-25,-16,-16,-20,12,5,-12,42,17,24,-25,-38,19,22,35,-27,0,31,-40,15,43,-37,-25,15,24,26,-16,-32,-34,-21,68,29,21,-23,-32,20,-48,-22,-9,34,-14,46,19,-24,-31,-11,-2,36,-18,-12,-20,27,20,16,83,24,-21,27,19,-9,-14,32,-53,22,-44,-14,18,20,-35,14,-19,-15,-70,-31,-22,0,-60,-17,22,29,-12,-20,126,15,48,-60,19,14,-24,10,44,-11,-61,26,-46,28,16,39,-126,-45,29,23,-22,31,-14,-9,-49,-37,-16,-35,11,-11,-28,25,-19,17,-17,-12,-19,21,45,27,21,-13,24,15,18,27,-15,-8,-19,35,-16,-17,0,-54,20,-57,14,-39,-24,26,-38,56,-20,-74,-20,1,28,16,-12,100,9,-14,-30,-25,12,-5,40,16,19,-20,-29,0,-29,74,-24,19,-23,17,28,0,-64,-43,-22,50,-38,-22,56,32,-37,-98,-27,-28,28,-68,65,-16,-39,18,-12,-21,17,19,13,-26,15,39,-76,-22,-28,-20,-29,-22,49,22,-3,72,22,-17,-15,-33,22,-10,30,-15,-26,-9,13,4,15,16,-9,54,19,25,24,-19,-7,-15,-33,-8,34,-43,-27,31,40,-16,43,0,-11,-35,-13,-28,-45,1,25,-26,-27,24,-18,-28,-8,-21,23,-26,16,17,-53,-33,20,16,28,-77,33,23,-22,-20,-18,-14,-35,-1,42,12,-1,-18,-21,71,-24,-96,-4,0,-13,37,-41,-21,6,29,-19,-23,27,-22,37,10,-15,48,-26,-39,-19,27,-4,-16,-22,22,-20,12,-19,-28,-10,47,126,-17,7,21,21,26,-4,-41,-45,46,-10,-18,8,-37,27,-20,19,-28,32,-35,-24,-50,18,-23,16,11,126,-28,-9,13,-44,-61,47,10,9,-21,27,-33,14,27,-17,18,12,-12,25,14,20,-51,-5,34,33,21,-20,-15,-27,-27,-17,-36,33,-24,-8,10,39,2,-23,10,-1,27,15,-13,11,-16,45,-25,-55,-40,-36,11,-22,-12,19,21,-19,-19,41,-30,-15,-27,15,-7,104,29,20,52,15,16,-16,42,0,16,16,-15,-45,46,15,-15,20,-20,-33,-21,33,-26,-13,24,-18,-29,-13,29,25,28,17,39,13,-27,-23,-14,-25,-16,12,46,22,42,20,-32,-23,40,29,-34,-12,-31,-16,41,65,-36,-18,-66,-28,20,-15,-20,21,16,22,-4,-82,-14,-14,17,13,52,40,8,22,39,35,-2,-43,25,20,102,60,-17,-49,-24,15,80,-18,-26,-17,-23,-70,47,52,77,34,11,-18,15,21,-16,20,22,-30,20,-7,-14,-42,-24,-42,21,-8,-13,18,-51,-3,11,-21,18,-24,4,12,-22,-24,125,18,-13,-29,17,28,-28,-13,25,-3,22,30,26,-34,10,-27,18,-11,24,-25,18,16,-17,-60,17,36,-50,-17,-110,21,-34,-15,62,-12,40,29,12,17,-31,-17,22,14,66,-50,-30,32,6,13,54,-14,-17,16,-36,-48,11,18,-12,-16,-14,-38,-103,-33,66,33,57,16,-16,21,-20,-17,99,-44,-17,102,-17,22,34,37,-28,-30,-7,-12,-17,23,57,-37,-16,29,-27,14,16,17,-21,49,30,-9,4,27,18,-20,-13,-25,-24,-29,-22,-18,-16,-45,-24,-22,20,-20,33,8,6,-15,-22,48,-28,-30,3,-10,8,11,16,126,18,19,42,25,27,28,12,-11,-47,31,-23,-28,-20,-13,-22,18,13,-21,16,-16,-13,21,-15,-36,-28,18,-30,38,-11,-33,19,-16,-17,25,37,41,-13,8,-18,-77,-14,-17,-32,17,-28,23,28,-98,-31,32,28,-30,11,33,-38,36,-50,22,29,27,7,28,-26,-14,-29,108,14,-11,-28,-49,-26,17,-19,28,-60,-26,-12,9,14,18,-22,97,-7,-50,14,-4,-10,34,0,20,-13,-9,14,27,-31,-37,-13,-45,50,-32,-14,0,31,17,-29,24,21,-20,0,27,59,31,21,20,-13,43,10,13,14,-31,28,-12,19,-55,-17,-29,-25,-50,-44,-124,1,39,-40,37,-45,-24,-48,27,-15,-52,-22,56,-27,11,-6,8,-26,22,39,-37,12,47,-19,-6,-24,-15,19,16,35,-10,-9,23,-36,-20,-15,-11,22,24,-25,-11,28,-9,35,19,-21,-14,30,38,-23,10,-15,-27,30,-25,-1,36,-20,38,38,18,-23,-17,45,-51,-18,-16,-6,16,20,-9,86,60,-16,17,19,-36,13,-19,-16,-85,-51,-30,18,24,-18,14,21,0,-35,-20,-18,8,24,28,-9,18,-43,8,-32,4,18,-25,-65,49,-17,-9,-55,32,-5,31,27,-19,27,-35,-7,-10,16,-3,-24,-54,22,27,-22,-15,32,15,-31,41,-28,31,18,-33,-9,38,16,-26,-11,-36,-26,28,-15,34,-14,10,-41,-67,14,17,-22,-22,-39,-33,-34,-14,-22,11,126,-17,-26,15,-74,15,-34,18,-11,-27,-26,25,-18,39,-32,-23,55,-18,-18,16,-17,3,24,40,17,16,-14,-20,-17,-12,32,52,2,25,-22,-43,-18,14,8,-1,-63,-15,50,10,-28,-13,-32,15,38,-57,-16,-29,-18,26,-23,33,-58,33,-17,18,17,-60,23,21,-23,-101,14,-11,-16,15,10,-35,8,41,14,-13,45,-11,23,-16,-27,36,-14,23,36,41,-50,17,-12,13,-30,43,-44,-21,19,-24,27,19,-16,-22,-22,52,-16,-13,-20,11,29,18,-14,15,39,43,-18,-16,-9,-6,88,-22,-12,22,-10,27,-43,-21,-11,113,-24,-15,17,19,32,-18,-22,-58,-12,29,13,-52,36,35,33,39,-9,15,19,15,14,-51,-50,35,-14,-39,-21,11,-11,-18,0,38,22,-13,18,-25,-54,-22,-25,35,-16,-29,56,-56,47,-18,-21,21,31,8,-25,-8,-19,-13,11,-36,-25,30,15,-29,-44,-10,14,-19,-16,-37,-31,-17,40,22,12,9,-9,16,-23,-16,-27,-18,20,40,10,-43,-24,25,13,-8,17,21,-22,19,-2,16,-16,16,-28,54,12,-26,27,13,52,-9,11,-18,17,-29,62,40,-27,13,18,22,-56,36,-23,-48,-23,-21,-22,-13,40,7,23,24,-19,-17,-4,-75,28,-11,-6,5,119,16,28,-23,16,-22,10,26,-21,-26,17,30,17,-15,16,-19,10,-68,-29,41,-8,16,-26,-21,-32,73,-75,-12,-9,16,-30,-24,14,29,-9,15,22,26,27,-51,18,15,-17,-18,-51,-27,-44,34,17,-14,-23,-45,-10,42,-30,-54,16,22,16,11,-16,13,-12,-9,18,42,25,-16,-21,12,16,24,9,0,-18,-21,-22,-28,-13,-52,18,4,-38,-22,21,-37,27,25,-25,1,-31,-9,60,-34,-26,105,25,-16,-94,-18,-25,14,0,84,42,90,-19,39,-29,46,-73,-37,-27,-20,63,56,49,24,-33,13,25,16,25,-13,-8,-24,46,39,29,-10,-28,0,18,-23,-15,18,-7,22,-11,-12,-31,30,-21,17,35,-51,22,-8,-17,27,-64,-37,-19,-18,45,9,21,-14,-23,33,11,-25,-17,-19,-37,-49,29,20,16,11,-61,-46,58,74,-22,48,21,30,-11,-11,18,8,-47,-20,32,-12,-27,35,-28,23,7,-37,34,-52,16,20,-14,22,-32,-53,108,-14,46,87,45,20,44,-10,-10,-27,39,-15,39,-49,-27,-25,13,35,20,17,19,16,-16,-14,15,8,-39,-13,-21,20,-11,-86,34,-24,42,-39,-24,-19,14,-37,-9,-30,-38,-34,54,8,11,-7,-14,19,-16,16,-9,-30,-13,-41,12,11,33,27,31,-27,11,31,27,61,20,24,28,-28,-70,-19,11,-17,-2,-23,-32,-28,-15,23,31,10,-18,-11,31,48,0,-9,-73,-13,14,-17,-17,12,9,-40,14,-21,-45,30,29,14,-16,-11,32,11,22,10,-11,20,12,14,-33,37,32,37,-23,-14,-89,22,-11,19,11,34,-39,-20,14,-18,-44,-92,-43,-11,38,12,-23,-43,11,20,-21,-9,10,49,16,24,18,20,19,-15,-6,12,-49,-18,-13,23,37,-22,-21,-27,40,0,-34,37,-17,-44,35,23,-16,-20,-25,19,31,40,20,-64,-23,-21,22,30,-23,44,27,11,-37,16,-41,-19,29,32,13,5,-39,21,11,20,-22,-23,-16,-93,-27,22,-71,-17,8,12,-32,87,-20,48,14,-16,-22,33,-12,18,16,53,35,21,0,59,25,-23,-35,12,19,-77,-17,-50,77,-19,-13,24,-8,-48,23,52,-20,34,-25,-16,-36,107,42,-24,-22,27,-28,14,9,45,53,18,37,-10,11,29,-24,20,-12,16,13,15,-22,-40,-22,-59,16,-24,-15,-15,-27,16,9,19,-31,18,14,0,59,-20,53,-17,31,32,-29,41,-29,22,64,21,-1,-19,-19,12,-97,-8,15,34,24,-11,4,-43,-13,-19,23,29,0,30,-65,19,-21,26,-14,-25,-1,62,38,23,-51,24,21,-56,-35,47,91,38,27,-28,96,-42,16,36,-19,12,29,-15,-17,-13,26,-9,-38,121,30,24,27,27,20,-41,-26,3,-70,-21,21,17,19,-22,12,-28,15,29,10,-13,4,-17,-13,13,-57,-19,-20,-21,17,3,16,34,9,-30,38,26,-32,-29,15,-34,0,11,31,13,15,48,-4,-23,28,30,-21,20,28,7,22,-21,26,-19,-14,49,29,-19,-17,-26,93,-35,-26,21,8,19,15,35,3,-38,-12,2,17,18,-73,24,81,5,1,15,-36,31,20,-6,-26,21,21,-28,22,-40,-9,13,-38,23,38,25,-30,1,15,21,-19,18,-2,22,33,10,-48,-101,20,-8,-23,-17,-23,1,38,41,-48,9,16,-9,35,-25,20,-20,30,-36,56,16,46,-15,21,-15,-11,-126,22,9,-14,43,61,-36,-9,2,18,-23,26,-14,-22,16,-14,-12,11,-24,-13,-21,46,5,-32,-28,-30,22,14,33,25,18,39,-24,23,8,-10,-32,-2,21,-11,0,-30,-16,12,-9,15,-45,24,54,37,33,-10,22,13,-20,-21,22,21,-63,27,15,24,-14,8,-43,-28,-19,-54,-17,-17,17,-41,1,-15,-18,14,38,-46,-15,16,-20,21,107,27,-40,34,14,-21,18,28,14,-24,-25,-27,-20,-44,-14,26,22,19,38,16,23,-66,-19,-50,-20,39,16,-33,-28,36,11,30,15,-43,-68,28,18,84,36,-14,16,19,-22,-15,-23,3,79,16,11,-18,-10,-63,-35,-8,-39,-33,-27,10,84,-25,-22,-63,14,16,90,21,-14,-58,18,29,21,21,88,-54,-54,-85,-31,-10,18,-17,-20,16,-23,-18,32,-18,9,14,39,28,40,-20,8,16,-23,57,1,-11,21,-19,23,-5,-12,22,22,-67,-20,12,29,-18,-30,36,14,-24,1,-26,-18,-20,34,-13,27,-15,13,-23,24,-19,-18,19,55,-21,-43,80,20,107,-19,31,15,-61,13,-43,-26,-11,-19,29,23,-20,-11,-64,48,31,-32,-7,-13,-52,12,17,-18,31,50,-13,-17,13,15,16,46,96,32,-38,-34,-71,-16,20,-25,21,16,-49,44,18,-26,18,-23,-26,-22,29,25,9,14,18,-22,-52,35,20,-24,25,-14,-18,-3,21,-52,-31,8,-4,-20,-21,19,12,24,53,29,29,16,16,43,46,23,-22,13,-30,-9,-5,12,25,-36,26,35,-3,12,-12,-11,-17,-122,-17,-19,-43,-29,-20,-30,-14,11,40,-34,23,25,18,16,20,-23,-12,21,-18,14,15,-22,14,41,34,-17,29,-31,11,30,-21,19,15,-25,-26,-34,15,-25,17,78,13,20,41,-14,23,-21,-30,115,35,-32,-28,30,-10,-33,35,-41,53,-22,-28,-26,-5,-24,26,16,26,-64,-13,11,26,51,23,-17,21,-31,71,24,16,-7,-14,-20,26,-62,7,49,-17,4,8,-20,0,-18,14,19,-15,-26,31,54,14,43,-38,32,17,-1,-32,-16,37,-17,-19,21,0,-28,-59,-28,-23,-18,12,-26,-10,-14,-14,32,-27,12,-21,66,17,35,41,43,43,126,0,-42,46,-22,40,25,42,-29,18,56,98,-32,21,-9,6,-8,24,-16,-44,37,-13,-49,20,6,26,15,-18,-14,-34,12,8,-22,42,25,16,13,-21,-25,31,10,-28,9,-34,-19,20,13,-38,-34,22,-11,14,37,-34,22,0,-34,24,-45,-36,-20,23,20,-42,46,19,46,7,-17,-22,8,-84,-60,17,-16,-22,38,-13,18,16,86,41,29,-19,-25,20,-11,-28,10,41,17,15,-8,-32,-20,7,-27,33,-7,34,-8,-48,21,73,-28,20,11,62,-23,6,-24,-30,12,-26,38,9,8,-22,-4,20,46,-19,-21,15,21,-24,-12,23,-41,25,-16,-14,27,12,-23,-28,18,-6,28,56,-26,14,-29,16,-11,41,63,-13,-24,20,16,51,32,26,19,29,-12,-60,16,27,-23,64,-9,32,-12,8,23,29,-23,15,-42,35,20,-79,19,14,-10,15,-8,-23,-39,-19,-10,27,15,16,18,-31,-37,24,-16,26,38,20,-15,-4,21,48,10,-50,-7,39,14,40,-15,-51,52,18,18,13,-21,32,-29,46,-35,18,-18,-12,58,-16,-21,21,82,-13,11,13,-12,-8,33,-10,-37,-17,17,-27,47,-17,13,29,-29,12,-21,-19,-29,42,-17,9,-23,22,-57,43,20,-17,5,-28,-23,10,20,29,-32,23,21,19,-18,-25,-12,20,-14,-24,-25,10,11,20,46,-66,21,8,-37,21,-12,63,18,22,-52,15,14,-15,-12,-24,25,22,46,11,-29,-9,55,-37,-23,-20,-38,17,-6,-20,-13,-15,109,24,-22,21,38,30,-9,10,13,13,-46,-25,11,-15,23,35,18,25,-39,14,34,-50,39,-51,13,32,-17,-34,-15,28,5,16,13,-8,29,20,-29,-11,29,36,19,-17,23,15,24,23,14,-46,-18,-9,-12,16,-14,21,11,25,21,-18,-38,-8,31,15,-23,-12,14,-9,-18,17,-11,-2,-12,24,-23,28,-41,-36,19,-29,-12,-47,13,-13,16,-24,20,-17,-39,26,-14,-15,-25,47,-20,20,42,21,28,23,10,-41,-9,-31,-21,13,22,4,80,-44,9,5,-10,-74,-12,-34,20,-14,22,-11,-18,20,31,-13,-42,-13,13,-39,17,-8,34,30,-47,19,-15,25,22,25,-76,78,14,10,-12,31,18,-13,-32,5,-7,-20,-21,-22,56,-19,-19,13,11,78,39,47,-37,-16,12,19,48,8,-30,38,48,-21,-19,-15,-8,10,-12,14,7,-12,-30,-19,12,29,-18,-9,-18,-5,-11,12,29,18,26,10,16,-12,-24,34,26,-20,43,-13,-26,26,-17,29,15,-36,46,11,-53,-20,27,104,17,23,-10,2,-57,-33,-126,17,-21,28,-28,31,59,20,29,-30,-34,-29,-13,37,-12,-25,-34,-39,10,15,52,-72,-36,-56,7,27,-6,-13,17,19,-13,7,-23,10,6,27,-14,20,-17,-31,49,-18,7,18,-29,49,43,2,16,-24,-6,-29,18,26,-32,-11,15,13,17,36,63,-31,-26,-18,-28,39,94,-50,-70,45,-30,-14,-20,10,10,-18,-7,67,20,-54,11,38,-15,37,-23,-15,56,-28,75,-16,-12,14,-21,29,49,-50,12,-68,-52,-53,-15,-37,9,9,33,-50,15,-43,38,23,19,-11,-52,-18,-14,-22,-12,11,13,-11,-10,28,10,22,-17,19,100,-43,29,-27,52,19,18,-12,33,8,29,47,34,-70,-35,-5,17,17,-19,16,-17,10,20,12,40,-13,-10,-33,-28,-35,19,-17,-13,-39,-78,-34,-20,-17,25,65,20,-7,15,0,17,45,19,12,-23,-53,-10,14,9,-42,-37,27,7,80,16,-8,18,17,-32,-12,40,-15,19,51,-21,-22,-11,13,6,-26,-13,-61,-7,12,-7,-9,-19,44,-35,-22,-44,17,19,113,-15,12,-15,0,-26,51,20,-13,23,30,61,91,15,-22,-6,15,77,-32,-14,18,7,-7,-34,-15,-19,-12,-12,-22,11,-3,-9,50,20,55,-18,-38,16,19,30,-22,20,28,-38,12,38,-38,-19,15,18,19,-19,-21,-37,-21,57,22,19,-20,-23,31,-49,-19,-7,32,-10,37,14,-18,-20,-11,-12,39,-21,-5,-14,28,15,26,111,27,-34,14,13,-10,-10,21,-35,24,-30,-10,27,23,-29,12,-15,-18,-59,-21,-18,0,-44,-16,32,65,-10,-20,117,29,81,-38,17,12,-20,20,38,-107,-50,23,-59,19,20,41,-124,-44,25,33,-27,31,-11,-9,-57,-24,-15,-28,14,-11,-29,29,-14,18,-20,-12,-24,31,36,18,14,-12,21,11,17,27,-17,-7,-24,30,-9,-17,0,-52,17,-56,16,-94,-18,22,-58,48,-28,-57,-20,0,27,12,-10,104,7,-21,-32,-22,13,-8,40,20,18,-22,-38,-12,-22,100,-33,20,-9,21,26,13,-49,-28,-20,67,-21,-21,79,39,-35,-126,-18,-29,28,-76,56,-11,-50,14,-10,-14,27,22,13,-41,35,34,-50,-18,-26,-14,-23,-22,54,24,-8,58,22,-14,-13,-56,22,-8,43,-15,-39,-8,10,12,25,32,-10,56,18,22,16,-15,-14,-10,-32,-7,27,-44,-38,23,33,-21,34,-2,-8,-75,-19,-32,-62,14,32,-20,-43,21,-16,-29,-14,-24,24,-29,14,18,-60,-23,12,16,32,-63,43,20,-20,-44,-10,-16,-35,-5,48,16,-38,-18,-25,74,-12,-108,-4,-15,-13,42,-21,-19,11,17,-20,-29,22,-21,27,9,-13,53,-22,-24,-14,22,-8,-8,-18,21,-19,31,-17,-27,-8,49,121,-28,7,18,22,29,3,-39,-40,35,-14,-14,7,-30,25,-17,17,-23,42,-30,-29,-41,16,-18,16,13,106,-35,-7,13,-43,-56,43,5,9,-19,20,-41,13,19,-24,18,22,-10,23,16,16,-57,-5,24,34,17,-17,-15,-21,-28,-26,-24,24,-21,-17,16,37,8,-24,11,0,33,16,-15,8,-11,41,-25,-46,-32,-31,4,-24,-12,15,18,-24,-17,29,-25,-18,-32,16,-7,101,26,16,46,22,15,-13,30,3,23,12,-18,-45,40,17,-14,23,-8,-24,-22,28,-24,-14,36,-20,-20,-12,24,19,41,29,37,14,-48,-25,-16,-17,-19,19,73,24,59,17,-81,-102,27,27,-35,-12,-35,-13,46,65,-33,-18,-49,-34,15,-11,-17,16,13,24,-9,-57,-11,-23,14,8,41,48,9,19,41,32,-6,-40,32,12,117,108,-17,-40,-18,14,59,-14,-39,-13,-23,-94,54,73,64,38,17,-28,9,23,-13,16,26,-24,18,-5,-15,-32,-19,-53,28,-13,-12,15,-57,10,10,-21,23,-18,5,10,-17,-28,96,25,-9,-29,14,25,-20,-13,20,3,14,8,20,-32,24,-20,19,-9,37,-17,18,12,-18,-65,13,34,-34,-23,-99,18,-30,-15,42,-12,38,35,10,34,-37,-19,18,13,80,-43,-30,29,18,11,40,-26,-15,11,-44,-35,59,24,-12,-20,-16,-43,-120,-43,59,44,93,15,-28,16,-15,-12,84,-51,-15,90,-15,15,30,86,-24,-30,-5,-7,-12,20,53,-31,-11,23,-42,11,29,19,-23,58,41,-10,6,24,23,-13,-12,-33,-17,-37,-15,-10,-17,-39,-59,-26,16,-21,38,6,6,-12,-21,35,-20,-38,7,-8,19,8,16,126,18,19,30,21,62,20,13,-7,-41,44,-20,-37,-27,-14,-15,15,11,-13,17,-10,-10,14,-12,-32,-22,24,-38,41,-10,-34,23,-25,-15,20,34,34,-8,8,-24,-67,-12,-15,-19,12,-39,30,25,-99,-23,50,14,-22,10,28,-38,57,-41,16,31,34,4,42,-30,-20,-29,124,11,-6,-31,-32,-35,15,-21,27,-41,-20,-6,7,10,18,-18,110,-9,-45,12,-14,-13,19,0,22,-10,-1,15,29,-29,-25,-19,-37,41,-25,-11,9,29,32,-16,22,18,-15,-2,33,54,26,19,43,-10,32,10,15,13,-39,18,-28,18,-37,-12,-18,-20,-54,-42,-81,9,27,-50,30,-40,-21,-48,23,-10,-43,-14,37,-24,9,-7,8,-24,18,53,-42,6,46,-21,-6,-30,-14,15,11,43,-6,-11,22,-33,-25,-14,-11,17,23,-22,-17,30,-8,35,31,-31,-5,30,32,-26,10,-14,-62,23,-23,-2,58,-15,44,56,11,-23,-13,33,-59,-29,-13,-5,11,20,-8,105,50,-16,16,17,-38,12,-15,-13,-49,-60,-22,13,18,-17,25,11,-8,-52,-19,-15,7,29,20,-8,25,-33,7,-19,8,50,-18,-45,43,-19,-9,-58,30,-6,29,32,-14,28,-41,-9,-4,21,0,-19,-35,16,22,-17,-18,23,9,-21,37,-28,17,15,-30,-11,32,26,-21,3,-24,-63,25,-16,30,-13,12,-40,-65,11,30,-19,-16,-22,-28,-28,-17,-25,9,113,-15,-29,24,-71,11,-33,12,-9,-25,-28,21,-16,42,-25,-21,76,-21,-15,9,-16,8,23,44,20,10,-25,-17,-16,-19,33,35,-27,19,-26,-41,-22,15,5,-17,-58,-9,71,7,-38,-11,-40,11,52,-54,-14,-22,-14,24,-25,28,-49,30,-16,17,14,-53,19,17,-18,-113,13,-9,-14,13,8,-41,10,33,16,-18,19,-34,21,-13,-28,37,-12,17,26,30,-39,16,-10,23,-21,58,-41,-18,14,7,24,25,-11,-19,-32,49,-19,-20,-20,15,27,15,-23,11,29,37,-11,-11,-18,-49,81,-21,-7,41,-19,11,-54,-19,-16,117,-18,-14,14,11,20,-25,-21,-48,-11,30,8,-52,34,29,25,35,-23,8,23,11,12,-110,-39,25,-22,-34,-29,9,-11,-14,0,43,24,-12,17,-26,-34,-17,-25,34,-15,-21,52,-46,46,-13,-34,21,30,11,-27,-4,-15,-11,9,-29,-19,28,12,-32,-44,-19,17,-19,-11,-31,-24,-15,39,18,9,12,-17,11,-17,-12,-26,-21,19,36,8,-33,-17,23,13,-16,12,18,-19,12,2,11,-24,21,-30,50,50,-19,27,10,43,-13,12,-15,23,-22,51,45,-28,13,15,25,-45,27,-18,-41,-22,-22,-27,-12,39,19,27,18,-14,-16,1,-86,40,-9,-4,11,93,14,34,-19,12,-21,11,17,-21,-30,13,41,12,-14,42,-17,6,-29,-27,46,-23,12,-22,-20,-23,86,-70,-13,-10,11,-33,-19,14,29,-2,11,19,19,24,-64,15,19,-13,-12,-35,-32,-50,32,15,-12,-19,-50,-8,36,-29,-47,23,17,13,5,-11,12,-13,-7,14,34,19,-12,-29,18,9,20,5,12,-15,-27,-20,-21,-9,-41,13,13,-21,-24,16,-34,20,25,-26,12,-32,-17,45,-49,-15,75,20,-25,-91,-16,-25,10,-2,79,37,114,-15,24,-26,31,-36,-58,-21,-27,25,42,40,14,-32,11,23,32,39,-7,-15,-45,72,33,55,-8,-29,6,12,-19,-16,11,-7,21,-10,-8,-27,21,-21,17,28,-50,21,-6,-18,28,-55,-46,-2,-13,35,7,30,-20,-22,35,10,-18,-12,-17,-39,-69,29,23,15,30,-46,-32,63,80,-37,42,15,22,-11,-8,16,8,-36,-20,52,-11,-38,27,-32,23,13,-56,31,-37,16,13,-15,21,-31,-45,96,-13,67,103,47,16,44,-8,-9,-21,40,-12,27,-43,-24,-20,9,48,18,12,24,12,-12,-13,13,9,-35,-11,-23,17,-24,-88,42,-20,30,-53,-20,-17,13,-30,-7,-29,-47,-38,49,8,6,-15,-18,16,-16,17,-10,-23,-11,-33,12,10,36,28,39,-17,16,32,40,64,35,18,19,-30,-66,-18,6,-16,0,-21,-42,-21,-14,21,45,10,-15,-8,30,35,-35,-9,-84,-16,10,-10,-8,28,11,-37,16,-18,-50,22,22,14,-13,-6,29,13,28,8,-11,5,10,18,-38,35,30,45,-19,-16,-105,18,-11,13,2,26,-50,-21,13,-24,-28,-77,-28,-15,28,7,-10,-34,24,14,-20,-8,7,40,9,18,14,15,20,-13,1,10,-58,-23,-43,16,37,-19,-18,-22,38,-20,-32,35,-13,-40,35,16,-16,-15,-18,23,22,43,20,-46,-16,-18,19,24,-35,45,24,8,-34,11,-31,-14,22,22,12,14,-42,23,3,14,-23,-17,-26,-126,-30,35,-84,-12,10,9,-23,66,-24,42,9,-25,-26,28,-10,14,20,33,30,17,0,43,23,-34,-75,10,18,-49,-32,-80,58,-18,-11,21,-19,-42,95,37,-17,47,-18,-20,-37,94,40,-19,-31,30,-27,11,10,54,42,17,29,-12,11,31,-28,13,-11,19,14,22,-32,-31,-15,-38,14,-22,-12,-13,-27,17,7,26,-26,11,16,0,56,-18,49,-20,86,30,-24,61,-18,30,41,21,0,-19,-14,10,-96,-6,21,39,19,-12,7,-42,-15,-19,26,37,4,25,-71,26,-21,11,-16,-24,-20,45,23,22,-71,14,19,-78,-39,41,115,25,28,-29,117,-32,12,47,-14,10,20,-23,-20,-13,41,-28,-31,107,25,18,22,22,19,-50,-27,8,-55,-20,19,17,45,-21,10,-40,15,41,8,-10,2,-27,-30,14,-55,-15,-17,-13,13,13,10,32,8,-20,42,38,-23,-21,18,-25,1,8,67,19,25,66,-16,-28,23,47,-19,18,30,14,23,-22,28,-16,-14,52,20,-12,-17,-29,88,-45,-21,19,32,17,16,36,6,-48,-17,37,18,22,-76,10,94,5,17,15,-42,16,18,-12,-14,24,26,-23,21,-32,-7,11,-46,18,22,19,-23,6,8,17,-17,18,-23,18,33,8,-44,-82,30,-8,-20,-19,-27,-6,36,34,-36,13,13,-8,27,-21,17,-18,27,-45,54,22,37,-14,17,-14,-12,-87,29,7,-15,41,57,-30,-5,2,18,-15,37,-13,-18,23,-13,-21,7,-22,-15,-15,51,5,-23,-27,-26,18,14,26,25,28,28,-17,21,17,-16,-24,-8,22,-13,0,-37,-16,15,-6,11,-41,24,44,31,28,-2,24,12,-16,-19,27,20,-45,23,18,28,-16,7,-36,-25,-16,-49,-23,-17,14,-29,-1,-21,-17,16,28,-41,-17,15,-23,8,126,27,-34,32,14,-31,19,16,14,-20,-19,-39,-30,-39,-15,49,25,22,25,19,31,-88,-20,-68,-18,87,85,-23,-26,39,11,35,12,-47,-65,23,19,76,40,-10,12,17,-17,-12,-23,9,52,13,19,-15,-6,-61,-45,-9,-37,-34,-21,11,90,-33,-13,-68,-15,16,97,15,-12,-49,13,46,17,20,116,-60,-78,-76,-35,-14,26,-9,-23,13,-19,-21,24,-17,7,17,31,23,50,-27,13,18,-19,66,-11,-10,18,-24,16,-5,-10,17,26,-47,-27,8,29,-15,-26,30,15,-20,-4,-19,-4,-14,31,-29,20,-15,11,-36,18,-20,-12,22,61,-17,-35,69,27,96,-17,25,14,-46,13,-40,-32,-11,-35,36,25,-16,-10,-74,38,32,-27,-21,-11,-40,26,16,-13,37,35,-50,-23,13,18,17,52,110,41,-26,-46,-101,-14,32,-20,15,12,-35,51,16,-14,15,-17,-21,-24,24,25,7,9,12,-19,-38,27,15,-17,37,-11,-32,-7,22,-60,-43,9,-6,-19,-24,13,11,31,48,38,22,11,17,38,87,26,-17,13,-33,-7,-4,9,25,-24,18,44,-4,11,-21,-8,-16,-117,-18,-19,-32,-24,-54,-24,-16,8,35,-49,19,34,23,18,13,-17,-10,13,-19,9,11,-14,13,35,27,-23,39,-34,11,29,-25,27,13,-21,-24,-28,9,-25,22,70,11,16,26,-10,36,-29,-27,125,26,-47,-12,22,-8,-29,33,-59,38,-17,-30,-35,-4,-35,31,21,26,-63,-10,6,29,32,30,-15,25,-30,54,18,5,-5,-11,-20,22,-65,8,42,-14,14,-2,-11,0,-21,12,5,-15,-27,27,39,21,33,-29,27,13,-10,-28,-31,25,-16,-16,17,3,-30,-53,-23,-21,-36,9,-16,-10,-16,-14,40,-18,27,-21,44,15,24,34,50,42,103,-6,-29,55,-18,35,22,42,-23,12,43,101,-22,19,-7,8,-8,22,-11,-56,40,-7,-49,22,6,32,14,-15,-9,-41,8,10,-20,41,36,15,11,-17,-25,28,16,-30,7,-34,-32,30,4,-37,-27,25,-10,13,64,-31,21,-3,-58,19,-50,-47,-13,24,17,-28,54,31,46,6,-12,-21,8,-93,-49,17,-17,-21,38,-13,13,13,45,53,22,-14,-20,20,-23,-18,56,42,17,11,-7,-28,-14,5,-31,21,-4,21,-12,-94,11,52,-19,21,10,58,-21,7,-22,-34,5,-23,37,8,8,-25,-11,17,29,-13,-16,10,19,-12,-9,11,-31,18,-9,-10,23,14,-18,-46,13,-12,15,105,-21,11,-25,14,-12,33,51,-10,-61,18,10,47,20,14,19,25,-12,-38,11,30,-34,13,-7,24,-7,16,22,31,-19,12,-45,23,16,-60,17,11,-9,14,-14,-17,-21,-17,-4,36,14,14,26,-29,-19,35,-11,24,29,25,-14,-2,4,37,5,-67,-6,54,9,43,-7,-48,40,14,13,6,-18,33,-20,33,-25,16,-15,-8,54,-11,-15,13,75,-10,8,9,-6,-6,62,-11,-28,-19,23,-9,93,-13,9,21,-18,8,-13,-10,-21,27,-16,7,-31,14,-64,35,15,-12,-43,-22,-26,3,16,45,-24,26,24,15,-22,-22,-7,25,-10,-13,-16,3,7,32,65,-57,15,7,-65,30,4,62,13,58,-36,9,11,-11,-4,-17,31,20,34,10,-25,-4,46,-32,-18,-15,-32,39,2,-19,-6,-15,97,9,-12,31,25,36,-8,10,9,-2,-51,-27,7,-11,22,29,12,-64,-32,12,26,-32,20,-47,8,43,-14,-30,-14,31,2,13,9,-6,21,12,-24,-7,26,29,31,-19,18,9,15,18,13,-40,-11,-6,-14,19,-9,14,8,21,17,-16,-20,-7,21,10,-17,-12,26,-5,-12,13,-7,-12,-8,35,-29,26,-35,-97,14,-27,-10,-28,14,-15,11,-26,17,-14,-40,28,-11,-11,-32,28,-13,14,34,18,25,25,8,-34,-25,-28,-14,11,24,20,83,-66,7,4,-18,-51,-9,-33,14,-10,17,-11,-14,18,28,-7,-44,-8,12,-70,15,-7,11,24,-33,42,-10,20,18,13,-74,56,15,10,-8,31,12,-12,-41,2,-6,-16,-14,-14,58,-12,-21,2,6,56,38,48,-32,-13,9,16,54,6,-18,34,36,-20,-20,-14,-1,7,-9,13,8,-7,-16,-14,10,36,-25,-4,-12,0,-23,11,29,16,17,7,11,-8,-36,21,24,-14,34,-7,-23,27,-47,29,27,-16,58,4,-38,-15,30,89,13,18,-7,64,-32,-20,-126,14,-13,21,-18,16,75,9,50,-8,-24,-20,-7,28,-8,-18,-51,-43,2,24,79,-70,-27,-67,4,26,11,-8,14,17,-10,9,-25,8,2,23,-8,17,-14,-24,34,-15,5,15,-25,29,52,12,10,-14,-4,-52,20,20,-28,-8,7,9,16,31,72,-31,-31,-19,-41,22,70,-34,-67,56,-19,-14,-12,7,7,-14,-6,44,17,-73,8,47,-9,33,-18,-28,79,-22,49,-14,-10,13,-20,25,40,-33,10,-81,-53,-50,-11,-27,10,6,21,-43,9,-29,28,17,12,-8,-65,-14,-9,-24,-9,8,11,-7,-12,16,8,21,-10,31,81,-51,25,-16,51,15,11,-9,25,6,22,52,35,-59,-35,-5,27,22,-19,14,-15,9,15,18,25,-14,-8,-29,-22,-38,12,-28,-5,-48,-64,-37,-11,-11,24,70,15,-3,14,-5,14,54,12,8,-22,-68,-11,10,7,-53,-18,83,4,91,16,-4,15,12,-51,-10,27,-13,13,44,-17,-15,-9,11,1,-22,-14,-87,-4,12,-7,-8,-19,47,-25,-18,-33,6,21,120,-9,9,-9,7,-19,49,17,-11,22,19,47,83,17,-15,-4,7,60,-53,-9,12,5,-3,-23,-6,-13,-8,-8,-22,7,-6,-9,57,17,90,-13,-34,11,14,25,-15,91,19,-30,8,26,-29,-13,14,11,12,-18,-4,-33,-16,38,14,16,-16,-8,39,-43,-13,-5,16,-4,28,10,-12,-9,-10,-24,31,-19,1,-9,28,10,39,91,23,-45,0,8,-10,-8,16,-27,24,-13,-6,34,25,-22,8,-9,-18,-38,-2,-14,-51,-24,-15,49,108,-8,-17,78,49,113,-19,13,9,-12,29,35,-126,-30,14,-48,12,21,37,-85,-37,17,39,-28,24,-8,-8,-67,-14,-12,-21,17,-11,-29,31,-9,20,-17,-14,-23,39,27,11,10,-9,16,8,17,25,-18,-4,-25,20,-4,-13,-53,-35,11,-49,15,-117,-7,16,-64,36,-36,-37,-20,-3,20,8,-10,78,5,-28,-28,-16,10,-16,32,20,14,-21,-38,-6,-13,116,-37,17,2,21,22,36,-23,-20,-16,73,-11,-13,92,30,-26,-120,-10,-25,23,-75,42,-7,-60,9,-8,-8,38,23,11,-64,56,21,-27,-13,-19,-9,-16,-22,52,17,-29,40,23,-9,-9,-73,19,-5,49,-12,-55,-8,8,23,33,64,-31,65,13,17,9,-13,-35,-6,-27,-5,18,-41,-39,18,24,-31,24,-8,-5,-114,-22,-39,-72,17,29,-13,-66,16,-11,-27,-23,-19,19,-25,11,17,-50,-13,2,15,32,-43,44,17,-17,-59,-8,-15,-29,-21,51,17,-119,-12,-27,72,-3,-119,-4,-58,-19,38,-12,-15,17,10,-20,-36,20,-17,16,7,-12,55,-18,-21,-9,15,-15,-1,-13,16,-18,54,-13,-23,-5,53,75,-42,7,14,22,32,11,-32,-32,21,-15,-11,5,-20,20,-14,13,-15,48,-20,-32,-31,19,-13,13,13,55,-43,-6,11,-34,-39,33,3,7,-15,13,-61,10,12,-38,16,31,-10,20,22,11,-77,-5,19,31,19,-14,-9,-14,-23,-31,-14,15,-17,-22,30,30,18,-27,11,1,37,13,-18,5,-8,36,-23,-31,-18,-25,1,-23,-11,11,13,-23,-12,14,-18,-18,-33,16,-6,86,18,13,33,32,13,-10,16,4,24,11,-18,-36,28,17,-12,27,-3,-1,-20,18,-22,-13,43,-18,-12,-10,18,14,48,36,32,14,-69,-24,-16,-10,-19,27,102,21,74,16,-122,-106,19,22,-28,-11,-36,-9,48,48,-27,-18,-21,-33,13,-8,-14,13,13,30,-15,-29,-8,-23,11,5,21,52,9,13,32,23,-7,-37,37,0,122,126,-18,-28,-11,11,25,-9,-40,-7,-19,-107,49,75,39,34,20,-38,6,23,-9,10,29,-19,15,-2,-16,-22,-13,-60,37,-27,-10,14,-52,25,8,-17,16,-12,5,7,-14,-30,61,29,-2,-24,11,19,-15,-11,16,14,9,-4,15,-35,44,-13,19,-5,44,-10,17,7,-18,-76,13,26,-25,-24,-87,15,-22,-13,22,-23,33,50,9,45,-32,-16,12,10,86,-30,-27,23,42,9,24,-25,-15,9,-51,-25,78,31,-10,-19,-16,-41,-110,-50,36,56,126,15,-38,11,-9,-6,51,-47,-13,78,-9,10,23,126,-17,-25,-3,-4,-10,14,46,-22,-7,14,-46,6,42,31,-17,38,46,-8,7,16,22,-10,-11,-38,-10,-40,-7,-7,-15,-30,-108,-28,12,-23,34,3,5,-8,-16,21,-15,-45,23,-5,27,5,14,114,16,18,20,15,104,12,11,-5,-33,59,-15,-46,-33,-15,-11,12,8,-7,15,-2,-7,6,-10,-29,-18,30,-40,41,-8,-30,19,-35,-10,13,29,26,-4,6,-25,-50,-8,-13,-11,8,-49,30,21,-59,-14,64,8,-16,7,21,0,73,-28,10,29,40,7,47,-28,-22,-25,122,7,-1,-31,-21,-34,14,-21,21,-14,-16,-2,5,9,15,-14,117,-8,-34,9,10,-18,12,-73,23,-11,-10,14,24,-23,-13,-24,-21,27,-18,-8,28,25,65,-9,18,13,-11,-12,37,39,20,17,57,-9,19,8,12,12,-44,7,-48,16,-22,-7,-8,-16,-43,-30,-38,16,18,-50,21,-34,-17,-40,17,-5,-28,-12,25,-18,6,-9,7,-16,14,58,-41,1,46,-21,-5,-35,-11,12,9,43,-6,-11,18,-26,-28,-14,-9,11,24,-19,-18,36,-6,31,27,-37,4,24,21,-28,7,-11,-102,13,-12,9,59,-8,48,69,6,-18,-8,20,-49,-40,-10,-3,7,17,-6,114,35,-16,14,14,-34,11,-11,-10,-20,-56,-15,8,11,-14,34,6,-62,-59,-18,-11,7,28,14,-6,29,-22,5,-9,12,95,-10,-25,31,-20,-9,-55,28,-7,22,34,-8,23,-38,-7,-5,23,0,-16,-13,12,17,-12,-16,14,7,-12,27,-22,10,11,-24,-11,24,47,-14,6,-12,-112,21,-14,24,-11,12,-32,-53,8,68,-16,-9,-14,-16,-19,-18,-21,8,64,-11,-32,34,-20,8,-27,8,-15,-23,-31,16,-12,42,-17,-17,59,-19,-10,8,-14,14,17,27,18,7,-33,-14,-13,-28,32,18,-37,13,-25,-33,-26,13,3,0,-49,-4,79,6,-53,-7,-43,5,50,-42,-11,-16,-9,20,-26,21,-36,22,-15,13,9,-49,12,13,-12,-105,10,-6,-12,8,7,-70,10,25,17,-25,8,-84,16,-8,-23,28,-8,10,14,21,-25,16,-8,31,-13,58,-32,-15,10,61,18,29,-6,-15,-49,44,-21,-25,-15,20,23,10,-28,8,18,24,-6,-8,-29,-72,63,-15,-4,63,-26,-4,-31,-13,-51,102,-12,-10,11,3,10,-31,-20,-29,-10,26,3,-43,29,22,17,28,-45,0,23,5,12,-97,-22,15,-32,-16,-32,7,-10,-9,2,47,27,-8,13,-25,-23,-9,64,28,-14,-15,34,-32,40,-9,-43,18,23,9,-31,-1,-12,-7,7,-20,-12,22,8,-31,-37,-31,19,-16,-7,-23,-18,-14,35,12,6,14,-22,8,-16,-8,-21,-17,16,22,7,-22,-11,17,13,-28,8,12,-15,7,15,7,-35,26,-28,42,108,-16,24,8,25,-14,14,-10,25,-18,39,47,-31,10,10,34,-29,17,-12,-34,-18,-19,-29,-9,30,42,25,12,-11,-18,-15,-77,61,-7,-3,19,57,11,34,-13,9,-18,11,11,-19,-28,8,44,8,-12,75,-15,5,-8,-18,33,-47,9,-18,-17,-11,83,-48,-13,-9,7,-32,-13,12,35,-2,10,16,15,16,-65,7,20,-2,-8,-26,-30,-50,25,13,-9,-16,-51,-5,23,-25,-38,23,18,13,0,-8,9,-12,-7,8,14,13,-9,-37,24,7,14,1,25,-12,-28,-17,-13,-6,-29,8,36,-9,-24,11,-26,12,23,-26,43,-32,-30,24,-62,-6,47,14,-26,-74,-12,-21,7,-64,61,25,103,-12,15,-17,21,-8,-77,-11,-48,5,30,29,7,-24,8,16,48,44,-1,-24,-73,73,26,68,-4,-28,-9,8,-15,-14,8,-8,25,-9,-5,-24,13,-17,14,19,-34,18,-4,-15,26,-36,-53,-12,-7,25,5,53,-23,-18,29,7,-8,-8,-15,-35,-80,28,28,12,41,-26,-22,55,87,-45,29,15,12,-9,-5,12,7,-29,-18,71,-9,-44,17,-29,20,26,-79,24,-26,15,11,-14,19,-27,-36,68,-11,89,113,45,13,33,-9,-6,-14,33,-8,12,-30,-16,-11,7,60,14,8,26,9,-9,-11,9,10,-25,-10,-22,11,-35,-70,49,-17,16,-51,-15,-11,10,-23,-6,-25,-52,-39,36,4,5,-25,-24,16,-13,16,-9,-16,-17,-18,13,8,34,24,42,-11,27,24,48,49,39,11,13,-29,-70,-14,3,-14,5,-17,-50,-14,-9,20,61,11,-11,-6,39,18,-87,-5,-97,-15,6,-6,-8,47,9,-28,15,-15,-42,16,15,12,-11,0,24,14,44,6,-10,3,8,19,-41,25,24,35,-8,-18,-109,12,-9,8,-6,19,-49,-18,10,-24,-21,-58,-14,-17,19,5,-4,-24,44,10,-14,-6,3,29,-2,13,10,11,19,-9,2,10,-71,-21,-81,11,32,-14,-14,-19,29,-100,-26,28,-8,-31,25,12,-15,-8,-12,23,5,40,14,-23,-9,-15,15,12,-44,39,18,5,-17,5,-21,-9,15,13,11,27,-34,21,-3,9,-23,-11,-39,-118,-25,48,-82,-9,11,8,-18,44,-27,25,4,-30,-26,20,-6,8,22,18,21,13,48,26,21,-51,-122,8,16,-34,-50,-104,36,-16,-7,12,-29,-37,126,13,-12,47,-12,-22,-33,50,32,-13,-36,28,-21,7,9,65,25,14,18,-14,10,31,-30,6,-12,17,14,21,-41,-23,-10,-22,11,-19,-8,-12,-26,17,5,28,-18,4,12,57,39,-12,35,-20,112,20,-18,66,-10,37,29,22,2,-15,-10,9,-74,-5,26,37,14,-9,15,-35,-15,-16,26,39,4,15,-80,30,-17,0,-16,-21,-38,19,12,18,-79,9,13,-89,-31,29,103,14,24,-25,124,-20,8,61,-9,8,13,-31,-20,-11,65,-46,-20,67,19,12,17,17,18,-53,-19,26,-35,-21,13,12,65,-19,7,-46,13,54,7,-8,-21,-36,-62,38,-67,-9,-14,-7,12,35,8,26,6,-12,38,39,-14,-14,27,-17,8,5,104,23,36,75,-19,-22,15,69,-17,14,29,22,18,-18,23,-12,-12,45,11,-2,-17,-29,72,-47,-18,15,48,18,16,29,24,-49,-17,106,12,24,-71,2,112,5,43,20,-39,9,14,-18,-11,25,34,-19,17,-19,-5,10,-46,11,16,13,-16,14,2,11,-13,18,-42,14,30,6,-26,-59,43,-8,-16,-19,-31,-12,28,26,-21,14,9,-7,17,-16,14,-14,20,-52,40,25,29,-16,12,-11,-12,-34,38,6,-12,33,42,-21,-3,3,14,-9,59,-10,-13,38,-11,-28,7,-17,-20,-9,70,4,-16,-23,-27,14,7,16,18,32,17,-9,17,22,-29,-12,-19,23,-13,-2,-40,-12,18,-4,8,-34,22,28,20,21,0,24,13,-12,-13,28,16,-26,17,18,30,-16,6,-26,-17,-12,-37,-30,-14,11,-17,-6,-23,-14,16,19,-33,-16,13,-27,4,126,23,-22,30,13,-36,18,7,11,-14,-13,-44,-37,-32,-15,69,23,22,14,19,39,-111,-18,-81,-17,126,99,-16,-19,34,10,36,8,-46,-47,17,18,51,38,-10,8,16,-13,-10,-24,13,28,9,23,-11,-4,-42,-50,-9,-30,-29,-14,9,89,-38,-1,-70,-74,15,85,10,-8,-34,8,52,10,15,126,-40,-83,-49,-31,-17,33,-3,-23,9,-14,-24,17,-14,3,19,21,17,55,-35,27,17,-15,60,-27,-8,13,-17,11,-5,-7,12,27,-40,-31,0,23,-11,-20,23,13,-15,-15,-13,2,-10,31,-51,13,-14,8,-41,11,-18,-7,24,77,-16,-26,54,29,95,-13,18,13,-32,24,-33,-52,-9,-45,31,22,-11,-9,-75,25,28,-20,-45,-9,-21,24,15,-10,43,24,-69,-30,12,20,18,51,98,48,-12,-58,-126,-13,41,-15,10,5,-26,46,15,-3,9,-11,-16,7,18,17,6,6,10,-13,-26,19,12,-9,38,-6,-43,-33,16,-42,-46,6,-7,-14,-21,8,10,37,34,39,15,10,14,28,126,28,-12,18,-27,-3,-3,6,21,-14,13,52,-18,9,-27,-5,-14,-105,-16,-18,-22,-18,-100,-15,-15,6,29,-65,13,42,28,17,10,-11,-8,8,-17,1,7,-7,11,30,22,-29,39,-36,9,23,-21,40,9,-15,-21,-20,6,-22,23,56,8,14,17,-6,46,-31,-21,92,16,-57,-7,17,-5,-22,-5,-70,26,-12,-30,-41,-8,-38,30,22,24,-60,-6,0,28,20,31,-14,27,-26,29,15,-5,-3,-9,-17,18,-63,8,31,-9,-11,-10,-7,15,-23,12,12,-14,-23,21,21,27,21,-16,19,9,-32,-23,-62,15,-15,-12,13,12,-33,-39,-17,-19,-34,9,-8,-8,-13,-12,45,-7,48,-18,29,10,12,28,42,29,50,-17,-20,54,-13,30,18,35,-16,6,28,97,-19,15,-5,11,-8,15,-8,-61,39,-3,-50,23,5,38,11,-11,-8,-38,7,10,-17,39,47,14,9,-9,-25,24,18,-35,5,-31,-28,37,-3,-29,-21,28,-7,11,99,-22,11,-9,-58,11,-56,-53,-8,19,11,-13,47,42,35,3,-9,-18,7,-95,-34,18,-15,-18,33,-12,9,10,18,50,16,-9,-13,16,-33,-9,82,36,16,7,-3,-27,-6,3,-43,9,-1,13,-13,-94,2,24,-5,24,11,43,-15,7,-17,-43,0,-14,26,6,6,-35,-13,11,20,-7,-10,8,17,-9,-8,-2,-19,8,-7,-5,17,18,-11,-102,9,-14,5,101,-10,7,-23,8,-14,19,23,-7,-126,16,5,41,15,7,13,14,-14,-11,7,27,-53,0,-7,10,-3,22,29,29,-8,7,-48,11,15,-46,13,6,-12,15,-21,-12,47,-14,-1,29,9,11,25,-23,-4,58,-6,23,12,42,-11,-1,-75,19,5,-118,-9,62,4,33,-1,-26,24,11,10,6,-14,34,-14,15,-18,16,-11,2,88,-5,-7,7,33,-4,5,7,4,-4,126,-12,-12,-20,21,18,126,-8,3,12,0,6,-5,-5,-12,13,-15,2,-39,12,-67,18,9,-6,-126,-9,-23,-8,8,71,-14,27,26,9,-27,-17,-4,40,-6,-1,-12,6,3,75,77,-47,7,8,-126,42,15,41,7,72,-11,3,11,-7,0,-8,28,16,17,9,-19,-1,31,-28,-29,-3,-20,39,11,-17,2,-1,70,6,-6,45,0,34,-7,10,6,-41,-51,-27,5,-6,18,23,8,-104,-22,9,17,-13,6,-37,4,59,-13,-20,-15,35,0,10,6,-4,6,6,-12,-5,20,13,40,-25,12,4,4,16,9,-32,-5,-3,-14,32,-13,1,3,18,8,-10,-29,-5,11,5,-14,-7,61,0,-6,10,-2,-52,-5,53,-46,18,-26,-126,10,-20,-8,-2,14,-16,7,-35,16,-11,-32,33,-9,-6,-41,11,-6,8,21,13,13,27,4,-19,-56,-28,-4,6,24,103,40,-86,2,3,-21,-33,-8,-26,12,-5,10,-11,-13,15,28,0,-36,-5,8,-111,10,-10,-27,16,-17,84,-4,9,11,7,-45,17,-3,8,-2,30,6,-10,-41,1,-3,-13,-8,-3,54,1,-26,-11,3,16,30,44,-20,-11,5,10,56,3,-4,25,67,-16,-16,-6,4,7,-8,9,0,-3,15,-10,6,28,-30,0,-9,3,-36,8,24,11,14,3,1,-6,-87,14,20,-7,27,-4,-18,29,-96,26,58,-4,72,5,-34,-10,19,12,7,10,-2,98,-12,-5,-58,7,-6,13,-9,22,84,6,96,25,-12,-11,-2,19,-7,-10,-77,-23,-16,62,126,-72,-23,-73,-2,23,33,-4,5,12,-6,0,-26,5,0,17,-3,17,-10,-13,21,-6,3,14,-21,-3,48,37,4,-9,-2,-74,20,11,-16,0,-3,7,8,22,83,-26,-29,-37,-52,20,22,-27,-55,52,-13,-14,-5,8,3,-7,-4,17,13,-115,5,59,-6,20,-19,-66,126,-6,22,-11,-12,10,-17,22,18,-6,4,-80,-37,-49,-6,-16,-14,3,13,-31,4,-13,1,12,6,-6,-71,-10,-3,-35,-7,2,7,-4,-30,9,4,15,-7,39,19,-43,19,-6,54,10,0,-5,13,4,11,56,37,-28,-25,-4,41,21,-25,9,-11,7,9,37,12,-14,-8,-32,-15,-36,12,-20,0,-62,-41,-54,-8,-6,24,63,-4,2,14,-23,12,50,6,3,-16,-36,-13,9,5,-43,-6,126,2,84,11,0,18,9,-55,-6,17,-14,5,39,-13,-12,-3,8,-5,-9,-8,-81,-3,13,-11,-6,-19,51,-16,-7,-16,2,28,84,-4,7,-6,15,-12,54,-5,-9,18,15,36,72,14,-5,0,2,13,-68,-4,8,3,3,-6,26,-5,-4,-6,-24,4,-9,-8,51,9,126,-7,-24,5,9,14,-11,126,8,-20,5,8,-22,-8,6,4,6,-16,12,-42,-11,26,8,8,-11,0,36,-25,-6,-2,-11,-1,14,9,-7,-5,-9,-59,18,-13,13,-8,27,14,64,8,16,-51,-4,4,-8,-6,17,-20,9,-11,-3,46,18,-10,6,-4,-14,0,-24,-8,-126,-9,-10,121,114,-6,-17,26,60,71,-6,6,3,-4,59,47,-96,-18,10,-23,6,18,29,-25,-24,8,53,-27,19,-4,-5,-77,-6,-8,-13,35,-8,-30,30,-1,20,-10,-11,-20,52,11,5,4,-7,10,4,14,23,-19,-3,-25,1,1,-9,-126,-12,8,-27,11,-126,-4,13,-51,21,-54,-11,-23,-7,9,5,-3,16,6,-35,-18,-4,2,-43,16,21,8,-20,-33,-32,-9,76,-31,13,16,22,5,52,-25,-8,-10,76,-1,-7,75,18,-20,-51,-6,-21,15,-65,21,-9,-53,5,-6,-2,50,31,9,-71,79,10,-4,-4,-1,-5,-8,-18,46,7,-107,5,23,-6,-1,-82,13,-2,65,-10,-52,-5,8,54,43,126,-126,72,10,13,3,-8,-67,-1,-29,-3,13,-44,-27,13,16,-51,7,-17,-3,-126,-22,-61,-57,26,46,-8,-126,7,-4,-18,-42,-1,10,-28,9,19,-24,-7,-3,15,32,-15,62,13,-14,-102,-11,-15,-13,-73,38,12,-122,-4,-32,29,-8,-87,-3,-89,-36,29,-10,-8,26,10,-21,-73,11,-9,11,6,-8,47,-12,-14,-5,11,-22,5,-10,8,-14,89,-10,-19,-2,49,21,-68,4,5,20,37,69,-22,-18,11,-15,-9,4,-9,18,-5,7,-9,46,-13,-35,-33,25,-9,12,17,18,-48,-5,12,-22,-14,15,3,2,-9,6,-111,7,6,-35,15,41,-34,16,29,6,-126,-5,13,26,28,-7,4,-9,-17,-34,-7,5,-14,-27,126,23,45,-31,16,27,29,8,-26,3,-4,16,-21,-19,-8,-15,0,-19,-35,6,5,-34,-6,13,-8,-12,-40,16,-3,64,15,10,14,54,10,-8,0,25,31,17,-13,-8,11,15,-13,33,12,5,-9,10,-18,-14,40,-16,-4,-8,9,10,63,67,28,6,-110,-28,-13,-3,-14,25,110,18,76,11,-126,-121,9,22,-3,-10,-24,-6,34,4,-20,-19,3,-32,13,-3,-3,10,10,37,-20,-2,-5,-20,12,3,16,46,9,3,14,14,-5,-31,31,-44,112,126,-21,-17,-5,7,0,-5,-51,-1,-14,-126,53,74,12,34,40,-40,8,18,-5,5,29,-13,9,0,-15,2,-8,-57,50,-61,-10,10,-22,56,3,-14,-15,-4,6,7,-12,-28,61,41,13,-16,8,10,-8,-6,15,52,5,-16,8,-27,74,-7,17,-2,43,-5,12,4,-19,-70,8,15,-16,-24,-35,9,-13,-13,1,-70,20,85,6,49,-19,-13,7,2,80,-25,-20,11,69,8,15,-17,-23,5,-52,-17,100,36,-12,-19,-16,-28,-32,-51,23,51,65,13,-40,6,-3,-5,43,-17,-17,72,-2,4,8,126,-13,-14,-4,-2,-6,9,24,-11,-6,7,-36,-6,44,62,0,53,47,39,3,9,20,-8,-10,-29,1,-46,-1,-6,-14,-17,-126,-23,5,-19,21,0,4,-7,-8,10,-6,-36,67,-3,39,2,14,40,11,14,5,10,124,15,0,-3,-27,100,-10,-65,-50,-13,-3,11,6,-7,17,4,-5,-3,-12,-25,-9,30,-32,15,-5,-20,11,-31,-9,7,16,16,-1,2,-29,-23,-4,-5,-7,7,-75,18,13,-47,-5,65,9,0,5,9,56,91,-15,3,10,36,12,54,-22,-28,-13,100,5,4,-27,-5,-24,11,-23,11,-1,-5,-1,2,5,9,-12,79,-5,-20,7,113,-16,1,-125,22,-9,-28,11,10,-15,-5,-29,-7,11,-15,-4,19,29,126,-6,9,8,-5,7,41,0,13,13,76,-6,11,1,10,9,-37,6,-94,14,-8,-2,-4,-8,-9,-6,-8,96,17,-38,9,-27,-19,-23,10,-2,-13,-9,15,-16,2,-13,7,-14,7,47,-40,3,45,-23,-3,-36,-6,10,8,38,2,-7,9,-13,-33,-11,-9,6,22,-16,-20,56,-4,25,-12,-54,15,20,12,-28,3,-15,-103,-4,45,34,41,-1,52,70,5,-11,-3,12,14,-51,-1,1,3,10,-13,102,18,-13,2,12,-24,16,-9,-6,4,-42,-8,2,-2,-14,58,3,-90,-53,-15,-6,4,28,7,-4,46,-11,2,-8,13,94,-3,-7,14,-22,-11,-40,20,-7,12,38,0,15,-29,-4,-3,32,-5,-8,-11,7,10,-7,-13,8,7,-3,12,-12,9,7,-14,-13,14,103,-7,8,-3,-102,11,-9,21,-8,15,-19,-26,8,126,-13,-4,-14,-10,-13,-14,-13,9,22,-7,-28,52,-18,8,-17,3,-19,-31,-30,3,-8,34,-10,-17,44,-15,-3,10,-13,23,12,-40,16,6,-27,-9,-10,-32,23,4,-62,7,-27,-19,-45,10,3,75,-31,-4,116,9,-50,-3,-37,0,30,-30,-8,-10,-9,15,-27,18,-19,16,-15,10,0,-74,4,8,-6,-71,6,-4,-11,-3,5,-126,11,14,18,-22,-6,-126,10,-2,-14,15,-6,5,7,13,-14,18,-3,39,-8,54,-18,-10,5,126,8,28,5,-8,-79,34,-18,-27,-9,28,18,7,-37,3,5,16,-9,-4,-72,-78,51,-8,-4,120,-34,-14,-13,-5,-69,27,-4,-8,6,-1,2,-28,-17,-17,-8,21,1,-32,27,23,5,13,-40,-11,19,-5,3,-68,-7,9,-51,5,-30,7,-8,-5,41,46,30,-6,9,-22,-14,-5,126,13,-11,-11,12,-18,31,-5,-57,19,7,15,-35,2,-7,-3,6,-5,-6,8,6,-26,-24,-39,29,-9,-5,-12,-13,-10,29,5,4,14,-27,13,-11,-4,-16,-8,8,40,6,-10,-5,14,10,-65,2,4,-11,0,56,5,-54,44,-27,32,126,-17,11,7,4,-14,15,-6,31,-16,19,36,-37,7,6,52,-12,8,-9,-22,-13,-12,-28,-5,11,84,23,4,-5,-15,-98,-18,83,-1,-2,21,30,8,27,-8,4,-11,12,10,-15,-28,0,35,6,-8,119,-11,9,21,-13,20,-88,4,-15,-11,-6,49,-19,4,-8,1,-32,-6,11,30,-2,10,14,10,2,-59,-6,20,14,-4,-14,-27,-45,9,11,-6,-9,-48,-3,7,-19,-72,21,13,5,-4,-8,9,-6,0,2,-13,9,-6,-31,28,3,9,-2,35,-8,-25,-13,-12,-3,0,4,88,-5,-20,6,-23,6,18,-30,93,-31,-62,8,-77,-5,49,8,-13,-17,-5,-17,2,-97,49,16,15,-5,9,-9,12,-9,-91,-5,-91,-19,18,15,2,-20,7,11,73,26,13,-62,-126,70,24,81,3,-23,-32,4,-6,-10,4,4,23,-6,-3,-17,5,-16,10,1,-20,8,-3,-14,26,-8,-47,-37,-2,13,3,73,-26,-10,14,0,4,-7,-8,-27,-93,25,22,21,54,-13,-10,54,69,-42,15,16,5,-10,-2,8,7,-17,-14,114,-5,-50,7,-22,20,60,-126,8,-21,15,9,-12,9,-20,-19,10,-5,98,75,45,7,13,9,-3,-7,16,-3,0,-2,-8,-2,5,66,9,2,38,8,-2,-7,6,28,-18,-6,-16,7,-40,-29,45,-13,1,-56,-7,-2,7,-11,-4,-17,-54,-40,11,-2,4,-40,-22,25,-8,11,-9,-8,-38,-10,14,8,39,19,41,-9,18,16,65,17,53,9,7,-30,-62,1,-1,-13,23,-13,-43,-9,-3,15,27,14,-9,-3,24,5,-123,-1,-95,-9,1,-1,-7,49,6,-22,16,-9,-37,11,13,4,-8,6,12,9,43,3,-13,7,7,22,-42,13,9,21,-1,-25,-92,5,-6,6,-14,15,-50,7,9,-22,-20,-48,0,-15,10,2,0,-9,63,6,-12,-2,-5,9,-36,6,5,7,18,-5,4,8,-68,-12,-126,7,16,-8,-9,-10,20,-126,-17,19,-5,-19,18,7,-6,-2,-7,21,-9,48,8,-14,-2,-7,10,4,-43,17,9,3,7,3,-9,-8,8,6,8,65,-21,15,-14,8,-23,-11,-64,-35,-17,55,-58,-6,11,7,-16,24,-14,8,1,-38,-20,13,-4,3,18,-8,32,10,126,14,13,-120,-126,5,16,-7,-59,-46,21,-7,-3,4,-61,-44,94,14,-9,26,-6,-20,-25,16,15,-7,-45,25,-19,3,6,77,14,9,19,-25,8,32,-26,0,-13,12,10,16,-56,-9,-5,-12,8,-15,-4,-11,-26,16,4,28,4,0,7,126,16,-9,13,-19,126,11,-14,54,-5,57,11,22,6,-7,-7,2,-27,-7,30,25,6,-2,43,-24,-16,-9,25,38,30,11,-60,26,-13,-11,-15,-9,-52,16,0,11,-87,1,8,-71,-22,16,34,8,22,-17,111,-4,6,60,-4,6,4,-45,-26,-8,74,-67,-13,15,8,1,9,11,14,-45,-9,101,-3,-22,10,2,81,-13,4,-59,11,50,4,-8,-57,-47,-126,126,-71,-7,-14,-2,7,58,4,24,5,-6,40,27,-10,-11,44,-2,17,3,126,24,67,61,-33,-29,8,126,-10,6,23,43,0,-11,26,-10,-12,29,10,7,-18,-27,17,-64,-15,10,89,21,16,15,79,-35,-11,116,3,27,-28,5,90,3,83,34,-24,5,9,-26,-13,26,73,-5,10,-9,-5,6,-38,7,11,7,-12,20,-1,7,-7,16,-80,9,27,3,-20,-36,71,-5,-6,-17,-38,-67,18,14,-12,15,8,-7,7,-14,6,-7,16,-52,30,28,32,-17,9,-9,-15,0,40,6,-12,19,16,-11,-3,4,7,-2,109,-8,-7,34,-13,-34,39,-13,-22,-6,126,6,-11,-18,-35,7,-6,6,10,30,7,-3,14,27,-126,-4,-49,27,-19,-27,-31,-7,26,-2,4,-16,18,12,15,11,2,21,39,-6,-6,40,10,-23,10,15,36,-15,5,-16,-13,-10,-22,-49,-10,8,-4,-25,-31,-16,11,0,-21,-15,15,-31,-9,98,11,-10,27,16,-30,16,2,8,-8,-8,-54,-66,-25,-6,107,25,18,4,13,40,-108,-15,-81,-13,126,117,-7,-18,16,10,20,5,-22,0,12,20,46,35,-12,3,6,-9,-9,-22,19,5,5,31,-10,-2,-30,-43,-9,-16,-4,-7,5,76,-36,43,-68,-126,16,59,5,-5,-9,4,60,2,13,126,-7,-89,-34,-30,-36,36,-4,-19,4,-8,-26,12,-7,1,22,-1,10,49,-45,62,17,-10,26,-58,-4,10,16,5,-6,-7,9,24,-46,-42,-16,15,-7,-11,14,9,-14,-53,-7,21,-5,25,-83,6,-14,4,-37,6,-14,-4,26,75,-7,-16,15,30,90,-8,11,12,-9,75,-20,-86,-6,-47,17,18,-6,-2,-69,22,21,-5,-77,-9,-11,15,23,-6,40,18,-90,-35,16,20,18,38,10,45,-7,-52,-61,-11,40,-8,4,4,-36,16,19,4,4,-6,-4,29,14,5,7,2,6,-7,-9,17,10,-6,22,9,-37,-62,0,-57,-50,-44,-3,-10,-18,7,9,31,0,46,8,9,14,10,126,21,-4,14,-15,1,-2,9,10,-8,5,52,-56,6,-36,-2,-13,-27,-9,-14,-8,-10,-126,-7,-5,3,26,-102,8,62,42,14,3,-9,-5,8,-15,-7,4,2,11,26,11,-31,22,-22,5,7,-14,38,8,-8,-15,-12,2,-15,31,23,7,7,10,-5,73,-22,-13,92,3,-57,-7,0,-4,-13,-64,-76,18,-5,-22,-36,-13,-46,26,27,13,-45,-4,-5,26,7,23,-10,29,-19,12,8,-16,-1,-4,-12,14,-44,6,14,-4,-116,-19,0,112,-22,11,18,-11,-11,10,9,33,10,-1,16,5,-19,-27,-118,11,-9,-8,6,-7,-42,0,-12,-14,-23,7,-5,-2,-11,-9,38,-5,95,-16,14,5,7,18,12,4,17,-97,-21,44,-4,26,19,14,-9,3,14,89,-15,11,-2,14,-7,15,-3,-47,36,-4,-49,23,4,38,6,-8,-8,-34,4,7,-9,23,52,11,9,-5,-21,19,20,-51,3,-27,8,53,-17,-22,-9,29,-4,14,103,0,-45,-33,-40,3,-58,-40,-5,13,5,-9,-9,56,0,-1,-4,-11,13,-79,-18,15,-2,-14,21,-16,5,7,-3,36,10,-4,5,19,-58,-3,19,14,5,2,-2,-28,-1,-1,-68,1,-2,6,0,-31,2,0,-4,54,5,11,-29,-45,-2,34,-4,-8,58,9,0,21,0,4,-3,-1,0,-1,11,0,-2,-5,-8,1,-3,-2,15,1,-4,-7,-2,-2,2,30,-3,3,-12,2,2,7,10,-3,-126,-10,0,-1,0,4,-17,2,-4,0,2,-35,0,108,-11,0,0,13,-7,-47,10,1,63,4,9,-11,2,6,21,11,117,1,-25,-5,1,0,11,-4,-1,1,2,12,0,1,2,51,-8,-1,20,2,0,-67,6,-10,2,75,-11,-18,-3,5,4,8,-10,-2,-2,2,1,22,0,-3,21,3,-8,2,-1,2,3,15,0,-3,102,-4,-17,-17,10,8,119,0,2,6,-6,14,1,2,0,0,-8,1,-2,-8,-20,11,1,-3,-106,6,-16,2,8,95,-1,4,10,-4,-12,-10,-5,48,-1,-1,-3,1,0,41,46,-66,0,-1,-53,-72,29,11,-1,-2,24,1,9,7,-13,-3,6,12,-3,2,-9,5,6,-15,-2,4,-5,2,3,-1,21,8,11,1,0,31,-8,17,0,10,3,22,-33,-25,-6,-4,7,-3,-4,0,0,6,-1,15,5,-39,0,27,-11,-6,-17,59,2,5,4,-5,3,0,-1,-1,9,-1,26,-22,5,0,7,1,2,-18,-6,-1,-1,-1,-3,2,-1,-5,-30,-3,-5,-6,0,0,8,-8,126,0,-2,-6,-6,-34,-1,4,-56,25,-10,-102,-2,-18,-3,-8,16,-11,2,-15,0,-3,-14,66,-1,-1,-12,0,-3,1,3,1,11,5,1,0,-71,-9,0,2,-7,73,6,-49,-1,1,-4,0,0,-7,1,0,2,0,-8,0,26,6,-59,-1,2,-110,-14,-5,-36,-4,-6,54,-3,4,3,0,-9,-4,-17,11,4,14,0,-8,-40,4,13,-20,7,0,24,-2,-17,-5,-4,10,-5,29,5,0,3,7,29,0,-1,6,67,2,-15,0,-40,13,-2,12,3,-3,11,-6,-1,-4,-13,7,0,0,-20,3,12,-7,2,2,-4,0,-57,1,24,0,10,0,-7,-5,-95,15,43,0,126,1,-20,6,-12,-3,3,3,0,-93,-3,8,0,0,1,-2,-3,12,51,9,59,77,0,-3,-5,-5,-3,-2,-68,32,-5,58,109,-41,-2,-33,5,7,7,0,0,-7,-3,-126,19,1,0,2,7,23,-6,-8,14,-2,1,32,-33,-19,34,29,1,-5,-1,-96,6,2,-5,-7,12,6,4,1,12,-9,11,23,-56,0,6,7,3,82,15,-6,-4,3,0,2,5,15,5,-89,2,82,-2,22,17,-28,-34,24,15,-8,-6,9,13,4,-6,7,5,-103,6,-23,-2,-3,-82,0,1,-8,1,8,20,17,2,-3,-79,-5,-1,-30,-11,2,0,-1,-16,2,4,3,-1,20,-1,-39,17,3,7,-10,7,-1,-25,0,-1,11,16,-3,-10,-4,33,7,-3,14,-10,1,0,43,-4,-13,-10,-14,-30,-30,6,-15,2,126,10,-73,-2,2,6,8,31,0,25,3,1,16,2,-4,-5,-13,1,-8,-1,-43,11,102,1,11,-1,-1,-3,3,-47,-22,11,9,2,28,-4,-3,3,-2,0,-2,4,-25,-2,-1,-1,-2,-22,12,-3,-2,-126,6,-6,15,8,6,10,5,-1,7,5,1,29,8,2,12,8,-1,0,2,11,-114,9,-6,10,0,-5,-63,0,-5,-1,5,3,-9,-2,98,1,-7,-3,-7,3,4,18,0,100,-5,0,-11,-3,-13,-1,17,1,-5,2,0,-49,3,-5,0,1,-2,-1,39,-20,-1,0,-27,-4,8,3,-3,-1,-3,-126,1,-6,4,-4,13,46,-126,-116,8,-126,-20,-9,3,-1,2,-1,33,-8,0,49,6,-7,2,-2,-4,9,-16,8,-81,-9,-7,101,-100,-4,0,0,27,92,10,-14,5,2,35,-3,-58,17,5,7,4,-5,15,0,-2,21,30,0,11,-7,-9,-27,-7,6,18,69,-2,-18,60,-19,15,-5,-21,-9,60,5,5,1,-5,2,2,5,14,-28,-1,-16,-16,4,-7,-80,-77,2,18,10,-126,2,20,-51,-10,-34,-40,-52,-101,2,3,9,-2,1,123,-5,7,-5,-94,9,4,0,0,-13,-12,-1,28,-24,8,0,0,2,2,2,6,-6,12,-2,-3,45,-10,4,4,-2,-21,3,-27,-2,-7,-40,1,-2,0,18,27,2,-23,33,-1,2,-4,1,-2,-26,-4,29,2,-13,1,-27,-4,1,-89,26,-1,65,-6,-27,0,4,13,24,96,-126,64,4,0,1,-5,37,6,-10,-1,-3,-7,4,1,4,-81,7,-6,-2,71,-32,-77,-17,44,10,-2,-71,2,-2,-26,-4,2,0,-13,12,4,3,2,-5,-11,-78,4,38,5,-6,-111,0,-10,-18,-119,11,-1,-29,-6,-15,1,-20,-79,-1,15,-54,5,1,0,16,-2,-6,-17,-8,-2,-5,0,-4,11,-7,1,-3,2,-28,-12,-4,3,3,52,-3,-32,-1,-11,2,-37,6,0,3,65,2,-6,1,5,-13,-4,-5,-1,18,0,-7,-9,91,13,-19,-30,-11,-6,2,0,10,-30,1,10,7,31,6,1,1,-4,2,-45,4,1,-32,1,15,9,7,66,2,5,-1,3,12,-2,-1,2,0,-8,-18,2,2,2,-8,29,-4,17,-78,3,-84,6,6,-14,1,0,5,-57,4,-1,-5,5,2,120,0,-1,-12,14,-8,0,-9,-2,16,18,24,3,5,8,9,4,1,7,3,24,-10,-9,7,-2,36,5,4,-14,22,-2,27,-27,-9,10,-4,1,2,-1,4,11,38,11,6,-57,-19,-4,0,-2,10,39,6,61,0,-44,-71,4,-12,44,0,-32,5,-23,7,-2,0,0,-13,3,1,-17,0,4,19,-5,11,-3,-2,0,2,29,52,3,-7,-11,4,-1,-8,45,-26,27,59,-16,15,-2,1,-3,-6,-19,-1,-1,-126,16,2,11,0,38,0,8,2,-2,-1,14,6,0,0,-14,0,1,-65,55,-88,-2,-1,-17,49,-1,-5,41,0,5,2,0,-13,54,-3,7,-6,7,3,1,-4,9,19,1,-5,4,6,57,0,10,0,85,-2,1,2,-9,-31,7,-2,0,1,2,4,2,-5,-1,110,19,-22,7,22,-15,0,1,4,18,-14,-19,12,90,5,3,-45,-38,4,1,-2,39,-5,-6,-11,19,4,4,-64,6,11,-9,11,11,2,-2,23,34,-4,-2,5,3,4,9,-44,2,6,-2,-3,-8,4,4,4,-23,0,-38,-9,8,123,-17,13,-55,44,-1,14,13,1,-1,-33,2,-57,1,1,-8,-9,-126,-30,1,-23,-4,0,1,0,-3,-5,-1,-45,85,-3,29,1,0,-4,7,22,-3,6,121,-6,-2,0,-7,41,-2,14,-10,-3,-3,3,2,22,-35,5,-4,4,-4,-4,0,-44,-16,-14,-3,-9,5,-12,0,2,7,0,-5,-5,-14,5,20,-2,-4,-3,-77,5,0,-81,1,26,-9,6,-13,6,65,54,-5,0,4,91,18,36,4,-36,-4,34,2,4,-23,21,-5,3,-14,2,4,5,2,2,51,6,-7,16,-10,4,1,56,-2,-8,-22,6,-6,-25,7,-1,-1,-2,-6,2,-4,-5,0,-9,9,48,-4,5,-1,0,6,14,-4,-1,6,20,5,0,-2,21,4,-10,8,-77,8,-6,-4,0,4,6,8,-2,-2,-30,-7,-3,-16,-2,2,11,-3,3,-9,8,-5,1,-2,7,0,4,37,-10,4,0,-18,-1,-79,2,5,4,31,-1,-3,2,10,0,-4,-2,-1,1,-12,-10,58,-2,14,-16,-47,16,14,0,1,3,-6,-42,27,58,-2,8,9,38,92,5,-2,-3,2,72,-22,0,-1,0,4,-15,39,2,-3,-13,-2,-4,3,0,0,0,12,-3,-1,-20,4,117,0,-20,-40,-2,-2,3,28,0,0,58,-2,2,-4,-1,26,-3,3,6,-55,-6,-10,23,38,3,-39,5,8,-52,-5,3,-20,-5,-4,2,2,0,0,-9,0,1,1,8,0,3,5,-18,0,5,-5,4,1,-2,-27,-13,-4,11,-1,-3,-5,-21,-1,126,10,0,3,0,-6,13,-2,3,13,-2,48,2,-104,8,-2,0,-18,7,36,-7,-1,-39,-4,-28,12,-11,-5,-19,-9,-101,-4,3,4,0,-2,-9,-1,-3,-2,2,-10,0,2,-2,-56,8,1,-14,0,1,61,-4,3,-2,-64,18,18,4,-5,-2,-13,8,0,2,-1,-11,-32,2,3,-17,-4,4,-3,3,-5,-1,-21,0,2,-101,6,29,17,-6,-16,-122,3,0,-5,3,-12,-1,-3,1,-2,12,-2,0,11,3,-12,-1,3,90,-6,36,-4,-3,-76,32,7,-9,5,11,14,4,-30,-1,0,6,-4,-2,-36,-62,75,0,0,46,63,-46,-14,2,-2,-2,0,-8,0,10,3,-10,-16,12,-2,9,-4,-1,19,-7,-4,3,0,2,8,-28,-7,-11,-2,0,-30,5,-9,0,-10,-2,-24,30,30,4,4,5,1,5,0,-6,-12,0,-11,-5,13,-3,-26,21,0,10,-37,0,5,-4,5,-3,1,10,1,0,-3,-22,22,-3,0,-7,0,-2,20,6,1,7,8,10,-4,0,5,36,2,10,7,-1,-1,-3,7,-126,0,1,6,5,24,1,-11,55,-35,13,90,2,13,3,15,-20,9,-1,5,5,3,23,-54,0,1,16,-1,2,-2,-5,0,-6,-6,0,-1,77,10,-4,-2,2,-126,19,31,2,-2,5,1,-1,8,1,-2,-3,1,5,-2,-26,0,57,2,-1,122,31,2,26,2,9,-16,3,-5,-2,0,12,2,17,-7,-4,-16,0,10,41,-5,-13,16,-6,-2,-31,2,8,-7,5,-16,-10,-31,-8,-1,-2,-9,-21,0,-2,-3,-29,-3,14,-3,30,-14,1,-10,-3,3,-12,5,1,0,14,-11,0,2,21,-4,-18,-17,1,-2,2,0,70,0,-22,0,-10,0,8,-2,124,-20,-41,1,-126,-1,24,-7,15,2,-12,-8,1,97,4,0,-1,5,2,3,3,-1,-77,-8,-52,-73,2,6,5,-3,3,-3,76,-30,7,-51,-96,43,3,34,-3,-7,-6,-3,6,10,0,126,-14,-1,-3,-1,-4,-17,12,1,-16,-1,-1,-25,24,13,-31,-28,-3,5,1,82,-9,0,7,6,-8,-6,-5,-3,-30,8,-9,-24,53,9,-4,-8,-3,-58,-8,7,2,-5,0,0,-1,-7,-2,95,-2,-71,3,-20,-16,34,-21,-15,-14,6,4,-11,-19,-4,3,-8,-3,107,-3,22,2,0,68,0,-2,3,0,-11,30,-6,-7,1,72,4,0,31,1,-1,-1,3,18,-1,-4,-16,0,-32,1,55,-13,-3,-6,13,0,1,22,0,-4,-10,-11,2,7,2,-25,-18,5,-10,7,2,0,-55,1,11,9,10,33,48,-6,15,0,-126,0,70,7,-2,-8,-7,-43,1,-23,-2,-2,-21,-4,1,12,8,5,11,4,4,-9,-88,2,-25,-7,1,0,-1,57,18,-17,-4,0,-24,1,3,-3,3,6,5,-2,18,2,-16,1,1,14,0,2,4,87,-13,5,-40,-12,-6,-9,-3,3,-10,8,3,-31,-8,8,20,-8,2,0,-3,10,80,-6,2,-3,2,2,63,0,5,0,-32,-3,7,3,-91,3,38,3,2,-4,-5,-13,-3,-98,-6,1,12,-4,9,2,-26,0,4,1,-2,50,-5,5,1,0,2,2,-31,15,-1,0,27,4,-9,-3,1,0,5,126,-2,4,2,5,-10,-29,126,126,-10,126,7,-1,-2,1,0,5,-35,7,0,-25,-12,6,-1,2,8,-16,-1,-6,83,9,6,-126,95,3,-2,11,-29,-76,0,15,-4,0,-31,-7,58,-17,-3,-18,-3,6,-11,-11,-1,-17,-30,6,-12,3,14,27,6,-3,-18,-70,1,26,-75,20,-15,7,2,10,-44,-4,-4,-6,4,-6,-2,-9,-18,25,3,19,10,-4,7,81,71,0,-18,-11,126,-4,-20,54,12,38,54,47,126,-3,-3,-5,0,-1,-126,7,9,0,103,-15,-3,0,4,8,12,1,-33,14,-4,1,3,-4,-2,-1,-10,7,-39,6,0,-44,16,-3,-7,2,30,-5,45,10,5,34,-1,3,0,-22,-18,-3,23,-22,-1,0,7,2,3,25,3,-35,-3,26,0,25,7,0,75,-7,2,-68,2,10,0,-6,-18,-24,-126,126,-56,-4,-2,-1,3,-60,-5,10,1,5,13,-5,-1,-6,70,0,8,2,-70,26,75,27,-43,-13,-2,42,0,2,28,18,-2,-1,19,-15,-2,-22,0,6,21,62,-10,-53,-7,1,126,0,9,21,106,-9,2,50,7,6,13,9,83,0,-17,46,7,-3,-2,-15,-3,13,25,4,2,-3,0,3,-19,7,2,4,-4,27,14,-3,-3,10,-53,3,40,1,13,-2,43,-7,0,2,-64,-3,5,-2,-11,13,3,4,-2,-19,0,3,13,-98,-15,17,22,7,6,-3,3,6,29,2,-10,0,-13,0,0,0,1,-2,51,-2,-1,28,3,-11,-23,-6,-84,-1,29,2,-1,-8,2,1,-3,-2,3,21,-2,0,-1,9,-48,-1,-14,83,-1,126,-5,-7,10,-1,0,-6,55,-4,4,4,-4,1,-125,-1,-3,18,-5,13,0,8,2,-15,-16,-1,-12,-6,-12,-8,0,-2,-3,-2,-24,5,7,-8,-2,-30,-12,1,9,-21,3,-23,26,9,-8,0,2,0,6,-4,0,-33,-8,-8,64,3,3,0,5,6,-41,-4,-68,-2,13,69,-4,8,-27,0,4,-3,43,-7,4,5,0,20,2,-1,11,6,-2,-13,3,-9,4,0,-1,-1,-12,-38,-3,3,7,-4,0,31,-59,16,-22,-82,9,-12,2,-1,6,3,21,1,9,126,-24,-29,-25,-3,-46,2,-6,-8,-10,-4,-7,-9,4,0,14,0,-1,54,-70,81,3,0,2,-48,1,6,-32,0,-4,-3,1,19,-44,6,-9,6,-6,-2,-2,1,-9,-17,0,6,-5,2,-73,0,-8,-1,-72,2,-2,-3,16,17,-7,7,14,5,0,-4,0,6,-3,-66,-19,27,-5,-20,13,3,-1,-3,-24,9,15,-13,-89,-4,-4,42,42,-4,-21,3,-41,-2,9,13,-19,-7,-4,38,-10,-15,-22,-10,-15,-4,2,-22,-30,2,5,11,-1,-5,-7,40,-2,7,4,3,8,-3,3,-8,18,0,4,11,22,-120,15,-11,58,-71,1,-16,-13,-1,1,39,-4,50,-2,-1,8,4,117,31,-1,15,4,0,-1,2,7,2,1,53,-126,3,-29,-1,0,-6,-4,-27,0,-4,-126,-1,-1,0,19,-33,2,-14,28,5,1,-2,-3,-25,29,-3,3,-4,-2,11,-1,22,14,12,3,1,-7,16,-1,-3,-7,-1,5,0,12,-10,-15,4,5,7,86,-8,1,66,-1,-30,15,-7,11,2,-70,-61,6,-2,-2,-81,-17,-33,-4,38,5,-9,0,-2,20,-17,9,-1,9,-5,2,-1,-5,-2,-58,-7,6,-5,9,-10,-4,-53,-12,8,20,-8,2,16,-6,2,-2,5,9,-9,4,5,1,24,-31,-66,5,-6,1,0,-5,-15,8,2,-7,-24,-3,4,0,-14,-3,9,-7,53,-8,5,3,2,15,-1,-9,16,1,16,5,7,16,-9,-6,-10,3,-2,62,-7,5,-1,3,-5,-13,-3,-11,8,-9,-3,24,3,84,-1,-10,-4,-23,-1,6,-2,-3,33,2,1,4,0,16,11,-18,2,-19,23,51,-18,-9,0,6,-3,5,58,-3,-62,2,-6,-4,-41,-58,-1,4,4,-5,-74,19,-1,-1,-1,-3,13,-41,0,6,12,3,0,-3,-1,-2,7,-13,1,0,74,-6,-126,-2};
constexpr int16_t FTWeights[NUM_INPUTS * L1_SIZE] = {0,0,0,0,0,0,0,0,0,0,0,0,0,0,0,0,0,0,0,0,0,0,0,0,0,0,0,0,0,0,0,0,0,0,0,0,0,0,0,0,0,0,0,0,0,0,0,0,0,0,0,0,0,0,0,0,0,0,0,0,0,0,0,0,0,0,0,0,0,0,0,0,0,0,0,0,0,0,0,0,0,0,0,0,0,0,0,0,0,0,0,0,0,0,0,0,0,0,0,0,0,0,0,0,0,0,0,0,0,0,0,0,0,0,0,0,0,0,0,0,0,0,0,0,0,0,0,0,0,0,0,0,0,0,0,0,0,0,0,0,0,0,0,0,0,0,0,0,0,0,0,0,0,0,0,0,0,0,0,0,0,0,0,0,0,0,0,0,0,0,0,0,0,0,0,0,0,0,0,0,0,0,0,0,0,0,0,0,0,0,0,0,0,0,0,0,0,0,0,0,0,0,0,0,0,0,0,0,0,0,0,0,0,0,0,0,0,0,0,0,0,0,0,0,0,0,0,0,0,0,0,0,0,0,0,0,0,0,0,0,0,0,0,0,0,0,0,0,0,0,0,0,0,0,0,0,0,0,0,0,0,0,0,0,0,0,0,0,0,0,0,0,0,0,0,0,0,0,0,0,0,0,0,0,0,0,0,0,0,0,0,0,0,0,0,0,0,0,0,0,0,0,0,0,0,0,0,0,0,0,0,0,0,0,0,0,0,0,0,0,0,0,0,0,0,0,0,0,0,0,0,0,0,0,0,0,0,0,0,0,0,0,0,0,0,0,0,0,0,0,0,0,0,0,0,0,0,0,0,0,0,0,0,0,0,0,0,0,0,0,0,0,0,0,0,0,0,0,0,0,0,0,0,0,0,0,0,0,0,0,0,0,0,0,0,0,0,0,0,0,0,0,0,0,0,0,0,0,0,0,0,0,0,0,0,0,0,0,0,0,0,0,0,0,0,0,0,0,0,0,0,0,0,0,0,0,0,0,0,0,0,0,0,0,0,0,0,0,0,0,0,0,0,0,0,0,0,0,0,0,0,0,0,0,0,0,0,0,0,0,0,0,0,0,0,0,0,0,0,0,0,0,0,0,0,0,0,0,0,0,0,0,0,0,0,0,0,0,0,0,0,0,0,0,0,0,0,0,0,0,0,0,0,0,0,0,0,0,0,0,0,0,0,0,0,0,0,0,0,0,0,0,0,0,0,0,0,0,0,0,0,0,0,0,0,0,0,0,0,0,0,0,0,0,0,0,0,0,0,0,0,0,0,0,0,0,0,0,0,0,0,0,0,0,0,0,0,0,0,0,0,0,0,0,0,0,0,0,0,0,0,0,0,0,0,0,0,0,0,0,0,0,0,0,0,0,0,0,0,0,0,0,0,0,0,0,0,0,0,0,0,0,0,0,0,0,0,0,0,0,0,0,0,0,0,0,0,0,0,0,0,0,0,0,0,0,0,0,0,0,0,0,0,0,0,0,0,0,0,0,0,0,0,0,0,0,0,0,0,0,0,0,0,0,0,0,0,0,0,0,0,0,0,0,0,0,0,0,0,0,0,0,0,0,0,0,0,0,0,0,0,0,0,0,0,0,0,0,0,0,0,0,0,0,0,0,0,0,0,0,0,0,0,0,0,0,0,0,0,0,0,0,0,0,0,0,0,0,0,0,0,0,0,0,0,0,0,0,0,0,0,0,0,0,0,0,0,0,0,0,0,0,0,0,0,0,0,0,0,0,0,0,0,0,0,0,0,0,0,0,0,0,0,0,0,0,0,0,0,0,0,0,0,0,0,0,0,0,0,0,0,0,0,0,0,0,0,0,0,0,0,0,0,0,0,0,0,0,0,0,0,0,0,0,0,0,0,0,0,0,0,0,0,0,0,0,0,0,0,0,0,0,0,0,0,0,0,0,0,0,0,0,0,0,0,0,0,0,0,0,0,0,0,0,0,0,0,0,0,0,0,0,0,0,0,0,0,0,0,0,0,0,0,0,0,0,0,0,0,0,0,0,0,0,0,0,0,0,0,0,0,0,0,0,0,0,0,0,0,0,0,0,0,0,0,0,0,0,0,0,0,0,0,0,0,0,0,0,0,0,0,0,0,0,0,0,0,0,0,0,0,0,0,0,0,0,0,0,0,0,0,0,0,0,0,0,0,0,0,0,0,0,0,0,0,0,0,0,0,0,0,0,0,0,0,0,0,0,0,0,0,0,0,0,0,0,0,0,0,0,0,0,0,0,0,0,0,0,0,0,0,0,0,0,0,0,0,0,0,0,0,0,0,0,0,0,0,0,0,0,0,0,0,0,0,0,0,0,0,0,0,0,0,0,0,0,0,0,0,0,0,0,0,0,0,0,0,0,0,0,0,0,0,0,0,0,0,0,0,0,0,0,0,0,0,0,0,0,0,0,0,0,0,0,0,0,0,0,0,0,0,0,0,0,0,0,0,0,0,0,0,0,0,0,0,0,0,0,0,0,0,0,0,0,0,0,0,0,0,0,0,0,0,0,0,0,0,0,0,0,0,0,0,0,0,0,0,0,0,0,0,0,0,0,0,0,0,0,0,0,0,0,0,0,0,0,0,0,0,0,0,0,0,0,0,0,0,0,0,0,0,0,0,0,0,0,0,0,0,0,0,0,0,0,0,0,0,0,0,0,0,0,0,0,0,0,0,0,0,0,0,0,0,0,0,0,0,0,0,0,0,0,0,0,0,0,0,0,0,0,0,0,0,0,0,0,0,0,0,0,0,0,0,0,0,0,0,0,0,0,0,0,0,0,0,0,0,0,0,0,0,0,0,0,0,0,0,0,0,0,0,0,0,0,0,0,0,0,0,0,0,0,0,0,0,0,0,0,0,0,0,0,0,0,0,0,0,0,0,0,0,0,0,0,0,0,0,0,0,0,0,0,0,0,0,0,0,0,0,0,0,0,0,0,0,0,0,0,0,0,0,0,0,0,0,0,0,0,0,0,0,0,0,0,0,0,0,0,0,0,0,0,0,0,0,0,0,0,0,0,0,0,0,0,0,0,0,0,0,0,0,0,0,0,0,0,0,0,0,0,0,0,0,0,0,0,0,0,0,0,0,0,0,0,0,0,0,0,0,0,0,0,0,0,0,0,0,0,0,0,0,0,0,0,0,0,0,0,0,0,0,0,0,0,0,0,0,0,0,0,0,0,0,0,0,0,0,0,0,0,0,0,0,0,0,0,0,0,0,0,0,0,0,0,0,0,0,0,0,0,0,0,0,0,0,0,0,0,0,0,0,0,0,0,0,0,0,0,0,0,0,0,0,0,0,0,0,0,0,0,0,0,0,0,0,0,0,0,0,0,0,0,0,0,0,0,0,0,0,0,0,0,0,0,0,0,0,0,0,0,0,0,0,0,0,0,0,0,0,0,0,0,0,0,0,0,0,0,0,0,0,0,0,0,0,0,0,0,0,0,0,0,0,0,0,0,0,0,0,0,0,0,0,0,0,0,0,0,0,0,0,0,0,0,0,0,0,0,0,0,0,0,0,0,0,0,0,0,0,0,0,0,0,0,0,0,0,0,0,0,0,0,0,0,0,0,0,0,0,0,0,0,0,0,0,0,0,0,0,0,0,0,0,0,0,0,0,0,0,0,0,0,0,0,0,0,0,0,0,0,0,0,0,0,0,0,0,0,0,0,0,0,0,0,0,0,0,0,0,0,0,0,0,0,0,0,0,0,0,0,0,0,0,0,0,0,0,0,0,0,0,0,0,0,0,0,0,0,0,0,0,0,0,0,0,0,0,0,0,0,0,0,0,0,0,0,0,0,0,0,0,0,0,0,0,0,0,0,0,0,0,0,0,0,0,0,0,0,0,0,0,0,0,0,0,0,0,0,0,0,0,0,0,0,0,0,0,0,0,0,0,0,0,0,0,0,0,0,0,0,0,0,0,0,0,0,0,0,0,0,0,0,0,0,0,0,0,0,0,0,0,0,0,0,0,0,0,0,0,0,0,0,0,0,0,0,0,0,0,0,0,0,0,0,0,0,0,0,0,0,0,0,0,0,0,0,0,0,0,0,0,0,0,0,0,0,0,0,0,0,0,0,0,0,0,0,0,0,0,0,0,0,0,0,0,0,0,0,0,0,0,0,0,0,0,0,0,0,0,0,0,0,0,0,0,0,0,0,0,0,0,0,0,0,0,0,0,0,0,0,0,0,0,0,0,0,0,0,0,0,0,0,0,0,0,0,0,0,0,0,0,0,0,0,0,0,0,0,0,0,0,0,0,0,0,0,0,0,0,0,0,0,0,0,0,0,0,0,0,0,0,0,0,0,0,0,0,0,0,0,0,0,0,0,0,0,0,0,0,0,0,0,0,0,0,0,0,0,0,0,0,0,0,0,0,0,0,0,0,0,0,0,0,0,0,0,0,0,0,0,0,0,0,0,0,0,0,0,0,0,0,0,0,0,0,0,0,0,0,0,0,0,0,0,0,0,0,0,0,0,0,0,0,0,0,0,0,0,0,0,0,0,0,0,0,0,0,0,0,0,0,0,0,0,0,0,0,0,0,0,0,0,0,0,0,0,0,0,0,0,0,0,0,0,0,0,0,0,0,0,0,0,0,0,0,0,0,0,0,0,0,0,0,0,0,0,0,0,0,0,0,0,0,0,0,0,0,0,0,0,0,0,0,0,0,0,0,0,0,0,0,0,0,0,0,0,0,0,0,0,0,0,0,0,0,0,0,0,0,0,0,0,0,0,0,0,0,0,0,0,0,0,0,0,0,0,0,0,0,0,0,0,0,0,0,0,0,0,0,0,0,0,0,0,0,0,0,0,0,0,0,0,0,0,0,0,0,0,0,0,0,0,0,0,0,0,0,0,0,0,0,0,0,0,0,0,0,0,0,0,0,0,0,0,0,0,0,0,0,0,0,0,0,0,0,0,0,0,0,0,0,0,0,0,0,0,0,0,0,0,0,0,0,0,0,0,0,0,0,0,0,0,0,0,0,0,0,0,0,0,0,0,0,0,0,0,0,0,0,0,0,0,0,0,0,0,0,0,0,0,0,0,0,0,0,0,0,0,0,0,0,0,0,0,0,0,0,0,0,0,0,0,0,0,0,0,0,0,0,0,0,0,0,0,0,0,0,0,0,0,0,0,0,0,0,0,0,0,0,0,0,0,0,0,0,0,0,0,0,0,0,0,0,0,0,0,0,0,0,0,0,0,0,0,0,0,0,0,0,0,0,0,0,0,0,0,0,0,0,0,0,0,0,0,0,0,0,0,0,0,0,0,0,0,0,0,0,0,0,0,0,0,0,0,0,0,0,0,0,0,0,0,0,0,0,0,0,0,0,0,0,0,0,0,0,0,0,0,0,0,0,0,0,0,0,0,0,0,0,0,0,0,0,0,0,0,0,0,0,0,0,0,0,0,0,0,0,0,0,0,0,0,0,0,0,0,0,0,0,0,0,0,0,0,0,0,0,0,0,0,0,0,0,0,0,0,0,0,0,0,0,0,0,0,0,0,0,0,0,0,0,0,0,0,0,0,0,0,0,0,0,0,0,0,0,0,0,0,0,0,0,0,0,0,0,0,0,0,0,0,0,0,0,0,0,0,0,0,0,0,0,0,0,0,0,0,0,0,0,0,0,0,0,0,0,0,0,0,0,0,0,0,0,0,0,0,0,0,0,0,0,0,0,0,0,0,0,0,0,0,0,0,0,0,0,0,0,0,0,0,0,0,0,0,0,0,0,0,0,0,0,0,0,0,0,0,0,0,0,0,0,0,0,0,0,0,0,0,0,0,0,0,0,0,0,0,0,0,0,0,0,0,0,0,0,0,0,0,0,0,0,0,0,0,0,0,0,0,0,0,0,0,0,0,0,0,0,0,0,0,0,0,0,0,0,0,0,0,0,0,0,0,0,0,0,0,0,0,0,0,0,0,0,0,0,0,0,0,0,0,0,0,0,0,0,0,0,0,0,0,0,0,0,0,0,0,0,0,0,0,0,0,0,0,0,0,0,0,0,0,0,0,0,0,0,0,0,0,0,0,0,0,0,0,0,0,0,0,0,0,0,0,0,0,0,0,0,0,0,0,0,0,0,0,0,0,0,0,0,0,0,0,0,0,0,0,0,0,0,0,0,0,0,0,0,0,0,0,0,0,0,0,0,0,0,0,0,0,0,0,0,0,0,0,0,0,0,0,0,0,0,0,0,0,0,0,0,0,0,0,0,0,0,0,0,0,0,0,0,0,0,0,0,0,0,0,0,0,0,0,0,0,0,0,0,0,0,0,0,0,0,0,0,0,0,0,0,0,0,0,0,0,0,0,0,0,0,0,0,0,0,0,0,0,0,0,0,0,0,0,0,0,0,0,0,0,0,0,0,0,0,0,0,0,0,0,0,0,0,0,0,0,0,0,0,0,0,0,0,0,0,0,0,0,0,0,0,0,0,0,0,0,0,0,0,0,0,0,0,0,0,0,0,0,0,0,0,0,0,0,0,0,0,0,0,0,0,0,0,0,0,0,0,0,0,0,0,0,0,0,0,0,0,0,0,0,0,0,0,0,0,0,0,0,0,0,0,0,0,0,0,0,0,0,0,0,0,0,0,0,0,0,0,0,0,0,0,0,0,0,0,0,0,0,0,0,0,0,0,0,0,0,0,0,0,0,0,0,0,0,0,0,0,0,0,0,0,0,0,0,0,0,0,0,0,0,0,0,0,0,0,0,0,0,0,0,0,0,0,0,0,0,0,0,0,0,0,0,0,0,0,0,0,0,0,0,0,0,0,0,0,0,0,0,0,0,0,0,0,0,0,0,0,0,0,0,0,0,0,0,0,0,0,0,0,0,0,0,0,0,0,0,0,0,0,0,0,0,0,0,0,0,0,0,0,0,0,0,0,0,0,0,0,0,0,0,0,0,0,0,0,0,0,0,0,0,0,0,0,0,0,0,0,0,0,0,0,0,0,0,0,0,0,0,0,0,0,0,0,0,0,0,0,0,0,0,0,0,0,0,0,0,0,0,0,0,0,0,0,0,0,0,0,0,0,0,0,0,0,0,0,0,0,0,0,0,0,0,0,0,0,0,0,0,0,0,0,0,0,0,0,0,0,0,0,0,0,0,0,0,0,0,0,0,0,0,0,0,0,0,0,0,0,0,0,0,0,0,0,0,0,0,0,0,0,0,0,0,0,0,0,0,0,0,0,0,0,0,0,0,0,0,0,0,0,0,0,0,0,0,0,0,0,0,0,0,0,0,0,0,0,0,0,0,0,0,0,0,0,0,0,0,0,0,0,0,0,0,0,0,0,0,0,0,0,0,0,0,0,0,0,0,0,0,0,0,0,0,0,0,0,0,0,0,0,0,0,0,0,0,0,0,0,0,0,0,0,0,0,0,0,0,0,0,0,0,0,0,0,0,0,0,0,0,0,0,0,0,0,0,0,0,0,0,0,0,0,0,0,0,0,0,0,0,0,0,0,0,0,0,0,0,0,0,0,0,0,0,0,0,0,0,0,0,0,0,0,0,0,0,0,0,0,0,0,0,0,0,0,0,0,0,0,0,0,0,0,0,0,0,0,0,0,0,0,0,0,0,0,0,0,0,0,0,0,0,0,0,0,0,0,0,0,0,0,0,0,0,0,0,0,0,0,0,0,0,0,0,0,0,0,0,0,0,0,0,0,0,0,0,0,0,0,0,0,0,0,0,0,0,0,0,0,0,0,0,0,0,0,0,0,0,0,0,0,0,0,0,0,0,0,0,0,0,0,0,0,0,0,0,0,0,0,0,0,0,0,0,0,0,0,0,0,0,0,0,0,0,0,0,0,0,0,0,0,0,0,0,0,0,0,0,0,0,0,0,0,0,0,0,0,0,0,0,0,0,0,0,0,0,0,0,0,0,0,0,0,0,0,0,0,0,0,0,0,0,0,0,0,0,0,0,0,0,0,0,0,0,0,0,0,0,0,0,0,0,0,0,0,0,0,0,0,0,0,0,0,0,0,0,0,0,0,0,0,0,0,0,0,0,0,0,0,0,0,0,0,0,0,0,0,0,0,0,0,0,0,0,0,0,0,0,0,0,0,0,0,0,0,0,0,0,0,0,0,0,0,0,0,0,0,0,0,0,0,0,0,0,0,0,0,0,0,0,0,0,0,0,0,0,0,0,0,0,0,0,0,0,0,0,0,0,0,0,0,0,0,0,0,0,0,0,0,0,0,0,0,0,0,0,0,0,0,0,0,0,0,0,0,0,0,0,0,0,0,0,0,0,0,0,0,0,0,0,0,0,0,0,0,0,0,0,0,0,0,0,0,0,0,0,0,0,0,0,0,0,0,0,0,0,0,0,0,0,0,0,0,0,0,0,0,0,0,0,0,0,0,0,0,0,0,0,0,0,0,0,0,0,0,0,0,0,0,0,0,0,0,0,0,0,0,0,0,0,0,0,0,0,0,0,0,0,0,0,0,0,0,0,0,0,0,0,0,0,0,0,0,0,0,0,0,0,0,0,0,0,0,0,0,0,0,0,0,0,0,0,0,0,0,0,0,0,0,0,0,0,0,0,0,0,0,0,0,0,0,0,0,0,0,0,0,0,0,0,0,0,0,0,0,0,0,0,0,0,0,0,0,0,0,0,0,0,0,0,0,0,0,0,0,0,0,0,0,0,0,0,0,0,0,0,0,0,0,0,0,0,0,0,0,0,0,0,0,0,0,0,0,0,0,0,0,0,0,0,0,0,0,0,0,0,0,0,0,0,0,0,0,0,0,0,0,0,0,0,0,0,0,0,0,0,0,0,0,0,0,0,0,0,0,0,0,0,0,0,0,0,0,0,0,0,0,0,0,0,0,0,0,0,0,0,0,0,0,0,0,0,0,0,0,0,0,0,0,0,0,0,0,0,0,0,0,0,0,0,0,0,0,0,0,0,0,0,0,0,0,0,0,0,0,0,0,0,0,0,0,0,0,0,0,0,0,0,0,0,0,0,0,0,0,0,0,0,0,0,0,0,0,0,0,0,0,0,0,0,0,0,0,0,0,0,0,0,0,0,0,0,0,0,0,0,0,0,0,0,0,0,0,0,0,0,0,0,0,0,0,0,0,0,0,0,0,0,0,0,0,0,0,0,0,0,0,0,0,0,0,0,0,0,0,0,0,0,0,0,0,0,0,0,0,0,0,0,0,0,0,0,0,0,0,0,0,0,0,0,0,0,0,0,0,0,0,0,0,0,0,0,0,0,0,0,0,0,0,0,0,0,0,0,0,0,0,0,0,0,0,0,0,0,0,0,0,0,0,0,0,0,0,0,0,0,0,0,0,0,0,0,0,0,0,0,0,0,0,0,0,0,0,0,0,0,0,0,0,0,0,0,0,0,0,0,0,0,0,0,0,0,0,0,0,0,0,0,0,0,0,0,0,0,0,0,0,0,0,0,0,0,0,0,0,0,0,0,0,0,0,0,0,0,0,0,0,0,0,0,0,0,0,0,0,0,0,0,0,0,0,0,0,0,0,0,0,0,0,0,0,0,0,0,0,0,0,0,0,0,0,0,0,0,0,0,0,0,0,0,0,0,0,0,0,0,0,0,0,0,0,0,0,0,0,0,0,0,0,0,0,0,0,0,0,0,0,0,0,0,0,0,0,0,0,0,0,0,0,0,0,0,0,0,0,0,0,0,0,0,0,0,0,0,0,0,0,0,0,0,0,0,0,0,0,0,0,0,0,0,0,0,0,0,0,0,0,0,0,0,0,0,0,0,0,0,0,0,0,0,0,0,0,0,0,0,0,0,0,0,0,0,0,0,0,0,0,0,0,0,0,0,0,0,0,0,0,0,0,0,0,0,0,0,0,0,0,0,0,0,0,0,0,0,0,0,0,0,0,0,0,0,0,0,0,0,0,0,0,0,0,0,0,0,0,0,0,0,0,0,0,0,0,0,0,0,0,0,0,0,0,0,0,0,0,0,0,0,0,0,0,0,0,0,0,0,0,0,0,0,0,0,0,0,0,0,0,0,0,0,0,0,0,0,0,0,0,0,0,0,0,0,0,0,0,0,0,0,0,0,0,0,0,0,0,0,0,0,0,0,0,0,0,0,0,0,0,0,0,0,0,0,0,0,0,0,0,0,0,0,0,0,0,0,0,0,0,0,0,0,0,0,0,0,0,0,0,0,0,0,0,0,0,0,0,0,0,0,0,0,0,0,0,0,0,0,0,0,0,0,0,0,0,0,0,0,0,0,0,0,0,0,0,0,0,0,0,0,0,0,0,0,0,0,0,0,0,0,0,0,0,0,0,0,0,0,0,0,0,0,0,0,0,0,0,0,0,0,0,0,0,0,0,0,0,0,0,0,0,0,0,0,0,0,0,0,0,0,0,0,0,0,0,0,0,0,0,0,0,0,0,0,0,0,0,0,0,0,0,0,0,0,0,0,0,0,0,0,0,0,0,0,0,0,0,0,0,0,0,0,0,0,0,0,0,0,0,0,0,0,0,0,0,0,0,0,0,0,0,0,0,0,0,0,0,0,0,0,0,0,0,0,0,0,0,0,0,0,0,0,0,0,0,0,0,0,0,0,0,0,0,0,0,0,0,0,0,0,0,0,0,0,0,0,0,0,0,0,0,0,0,0,0,0,0,0,0,0,0,0,0,0,0,0,0,0,0,0,0,0,0,0,0,0,0,0,0,0,0,0,0,0,0,0,0,0,0,0,0,0,0,0,0,0,0,0,0,0,0,0,0,0,0,0,0,0,0,0,0,0,0,0,0,0,0,0,0,0,0,0,0,0,0,0,0,0,0,0,0,0,0,0,0,0,0,0,0,0,0,0,0,0,0,0,0,0,0,0,0,0,0,0,0,0,0,0,0,0,0,0,0,0,0,0,0,0,0,0,0,0,0,0,0,0,0,0,0,0,0,0,0,0,0,0,0,0,0,0,0,0,0,0,0,0,0,0,0,0,0,0,0,0,0,0,0,0,0,0,0,0,0,0,0,0,0,0,0,0,0,0,0,0,0,0,0,0,0,0,0,0,0,0,0,0,0,0,0,0,0,0,0,0,0,0,0,0,0,0,0,0,0,0,0,0,0,0,0,0,0,0,0,0,0,0,0,0,0,0,0,0,0,0,0,0,0,0,0,0,0,0,0,0,0,0,0,0,0,0,0,0,0,0,0,0,0,0,0,0,0,0,0,0,0,0,0,0,0,0,0,0,0,0,0,0,0,0,0,0,0,0,0,0,0,0,0,0,0,0,0,0,0,0,0,0,0,0,0,0,0,0,0,0,0,0,0,0,0,0,0,0,0,0,0,0,0,0,0,0,0,0,0,0,0,0,0,0,0,0,0,0,0,0,0,0,0,0,0,0,0,0,0,0,0,0,0,0,0,0,0,0,0,0,0,0,0,0,0,0,0,0,0,0,0,0,0,0,0,0,0,0,0,0,0,0,0,0,0,0,0,0,0,0,0,0,0,0,0,0,0,0,0,0,0,0,0,0,0,0,0,0,0,0,0,0,0,0,0,0,0,0,0,0,0,0,0,0,0,0,0,0,0,0,0,0,0,0,0,0,0,0,0,0,0,0,0,0,0,0,0,0,0,0,0,0,0,0,0,0,0,0,0,0,0,0,0,0,0,0,0,0,0,0,0,0,0,0,0,0,0,0,0,0,0,0,0,0,0,0,0,0,0,0,0,0,0,0,0,0,0,0,0,0,0,0,0,0,0,0,0,0,0,0,0,0,0,0,0,0,0,0,0,0,0,0,0,0,0,0,0,0,0,0,0,0,0,0,0,0,0,0,0,0,0,0,0,0,0,0,0,0,0,0,0,0,0,0,0,0,0,0,0,0,0,0,0,0,0,0,0,0,0,0,0,0,0,0,0,0,0,0,0,0,0,0,0,0,0,0,0,0,0,0,0,0,0,0,0,0,0,0,0,0,0,0,0,0,0,0,0,0,0,0,0,0,0,0,0,0,0,0,0,0,0,0,0,0,0,0,0,0,0,0,0,0,0,0,0,0,0,0,0,0,0,0,0,0,0,0,0,0,0,0,0,0,0,0,0,0,0,0,0,0,0,0,0,0,0,0,0,0,0,0,0,0,0,0,0,0,0,0,0,0,0,0,0,0,0,0,0,0,0,0,0,0,0,0,0,0,0,0,0,0,0,0,0,0,0,0,0,0,0,0,0,0,0,0,0,0,0,0,0,0,0,0,0,0,0,0,0,0,0,0,0,0,0,0,0,0,0,0,0,0,0,0,0,0,0,0,0,0,0,0,0,0,0,0,0,0,0,0,0,0,0,0,0,0,0,0,0,0,0,0,0,0,0,0,0,0,0,0,0,0,0,0,0,0,0,0,0,0,0,0,0,0,0,0,0,0,0,0,0,0,0,0,0,0,0,0,0,0,0,0,0,0,0,0,0,0,0,0,0,0,0,0,0,0,0,0,0,0,0,0,0,0,0,0,0,0,0,0,0,0,0,0,0,0,0,0,0,0,0,0,0,0,0,0,0,0,0,0,0,0,0,0,0,0,0,0,0,0,0,0,0,0,0,0,0,0,0,0,0,0,0,0,0,0,0,0,0,0,0,0,0,0,0,0,0,0,0,0,0,0,0,0,0,0,0,0,0,0,0,0,0,0,0,0,0,0,0,0,0,0,0,0,0,0,0,0,0,0,0,0,0,0,0,0,0,0,0,0,0,0,0,0,0,0,0,0,0,0,0,0,0,0,0,0,0,0,0,0,0,0,0,0,0,0,0,0,0,0,0,0,0,0,0,0,0,0,0,0,0,0,0,0,0,0,0,0,0,0,0,0,0,0,0,0,0,0,0,0,0,0,0,0,0,0,0,0,0,0,0,0,0,0,0,0,0,0,0,0,0,0,0,0,0,0,0,0,0,0,0,0,0,0,0,0,0,0,0,0,0,0,0,0,0,0,0,0,0,0,0,0,0,0,0,0,0,0,0,0,0,0,0,0,0,0,0,0,0,0,0,0,0,0,0,0,0,0,0,0,0,0,0,0,0,0,0,0,0,0,0,0,0,0,0,0,0,0,0,0,0,0,0,0,0,0,0,0,0,0,0,0,0,0,0,0,0,0,0,0,0,0,0,0,0,0,0,0,0,0,0,0,0,0,0,0,0,0,0,0,0,0,0,0,0,0,0,0,0,0,0,0,0,0,0,0,0,0,0,0,0,0,0,0,0,0,0,0,0,0,0,0,0,0,0,0,0,0,0,0,0,0,0,0,0,0,0,0,0,0,0,0,0,0,0,0,0,0,0,0,0,0,0,0,0,0,0,0,0,0,0,0,0,0,0,0,0,0,0,0,0,0,0,0,0,0,0,0,0,0,0,0,0,0,0,0,0,0,0,0,0,0,0,0,0,0,0,0,0,0,0,0,0,0,0,0,0,0,0,0,0,0,0,0,0,0,0,0,0,0,0,0,0,0,0,0,0,0,0,0,0,0,0,0,0,0,0,0,0,0,0,0,0,0,0,0,0,0,0,0,0,0,0,0,0,0,0,0,0,0,0,0,0,0,0,0,0,0,0,0,0,0,0,0,0,0,0,0,0,0,0,0,0,0,0,0,0,0,0,0,0,0,0,0,0,0,0,0,0,0,0,0,0,0,0,0,0,0,0,0,0,0,0,0,0,0,0,0,0,0,0,0,0,0,0,0,0,0,0,0,0,0,0,0,0,0,0,0,0,0,0,0,0,0,0,0,0,0,0,0,0,0,0,0,0,0,0,0,0,0,0,0,0,0,0,0,0,0,0,0,0,0,0,0,0,0,0,0,0,0,0,0,0,0,0,0,0,0,0,0,0,0,0,0,0,0,0,0,0,0,0,0,0,0,0,0,0,0,0,0,0,0,0,0,0,0,0,0,0,0,0,0,0,0,0,0,0,0,0,0,0,0,0,0,0,0,0,0,0,0,0,0,0,0,0,0,0,0,0,0,0,0,0,0,0,0,0,0,0,0,0,0,0,0,0,0,0,0,0,0,0,0,0,0,0,0,0,0,0,0,0,0,0,0,0,0,0,0,0,0,0,0,0,0,0,0,0,0,0,0,0,0,0,0,0,0,0,0,0,0,0,0,0,0,0,0,0,0,0,0,0,0,0,0,0,0,0,0,0,0,0,0,0,0,0,0,0,0,0,0,0,0,0,0,0,0,0,0,0,0,0,0,0,0,0,0,0,0,0,0,0,0,0,0,0,0,0,0,0,0,0,0,0,0,0,0,0,0,0,0,0,0,0,0,0,0,0,0,0,0,0,0,0,0,0,0,0,0,0,0,0,0,0,0,0,0,0,0,0,0,0,0,0,0,0,0,0,0,0,0,0,0,0,0,0,0,0,0,0,0,0,0,0,0,0,0,0,0,0,0,0,0,0,0,0,0,0,0,0,0,0,0,0,0,0,0,0,0,0,0,0,0,0,0,0,0,0,0,0,0,0,0,0,0,0,0,0,0,0,0,0,0,0,0,0,0,0,0,0,0,0,0,0,0,0,0,0,0,0,0,0,0,0,0,0,0,0,0,0,0,0,0,0,0,0,0,0,0,0,0,0,0,0,0,0,0,0,0,0,0,0,0,0,0,0,0,0,0,0,0,0,0,0,0,0,0,0,0,0,0,0,0,0,0,0,0,0,0,0,0,0,0,0,0,0,0,0,0,0,0,0,0,0,0,0,0,0,0,0,0,0,0,0,0,0,0,0,0,0,0,0,0,0,0,0,0,0,0,0,0,0,0,0,0,0,0,0,0,0,0,0,0,0,0,0,0,0,0,0,0,0,0,0,0,0,0,0,0,0,0,0,0,0,0,0,0,0,0,0,0,0,0,0,0,0,0,0,0,0,0,0,0,0,0,0,0,0,0,0,0,0,0,0,0,0,0,0,0,0,0,0,0,0,0,0,0,0,0,0,0,0,0,0,0,0,0,0,0,0,0,0,0,0,0,0,0,0,0,0,0,0,0,0,0,0,0,0,0,0,0,0,0,0,0,0,0,0,0,0,0,0,0,0,0,0,0,0,0,0,0,0,0,0,0,0,0,0,0,0,0,0,0,0,0,0,0,0,0,0,0,0,0,0,0,0,0,0,0,0,0,0,0,0,0,0,0,0,0,0,0,0,0,0,0,0,0,0,0,0,0,0,0,0,0,0,0,0,0,0,0,0,0,0,0,0,0,0,0,0,0,0,0,0,0,0,0,0,0,0,0,0,0,0,0,0,0,0,0,0,0,0,0,0,0,0,0,0,0,0,0,0,0,0,0,0,0,0,0,0,0,0,0,0,0,0,0,0,0,0,0,0,0,0,0,0,0,0,0,0,0,0,0,0,0,0,0,0,0,0,0,0,0,0,0,0,0,0,0,0,0,0,0,0,0,0,0,0,0,0,0,0,0,0,0,0,0,0,0,0,0,0,0,0,0,0,0,0,0,0,0,0,0,0,0,0,0,0,0,0,0,0,0,0,0,0,0,0,0,0,0,0,0,0,0,0,0,0,0,0,0,0,0,0,0,0,0,0,0,0,0,0,0,0,0,0,0,0,0,0,0,0,0,0,0,0,0,0,0,0,0,0,0,0,0,0,0,0,0,0,0,0,0,0,0,0,0,0,0,0,0,0,0,0,0,0,0,0,0,0,0,0,0,0,0,0,0,0,0,0,0,0,0,0,0,0,0,0,0,0,0,0,0,0,0,0,0,0,0,0,0,0,0,0,0,0,0,0,0,0,0,0,0,0,0,0,0,0,0,0,0,0,0,0,0,0,0,0,0,0,0,0,0,0,0,0,0,0,0,0,0,0,0,0,0,0,0,0,0,0,0,0,0,0,0,0,0,0,0,0,0,0,0,0,0,0,0,0,0,0,0,0,0,0,0,0,0,0,0,0,0,0,0,0,0,0,0,0,0,0,0,0,0,0,0,0,0,0,0,0,0,0,0,0,0,0,0,0,0,0,0,0,0,0,0,0,0,0,0,0,0,0,0,0,0,0,0,0,0,0,0,0,0,0,0,0,0,0,0,0,0,0,0,0,0,0,0,0,0,0,0,0,0,0,0,0,0,0,0,0,0,0,0,0,0,0,0,0,0,0,0,0,0,0,0,0,0,0,0,0,0,0,0,0,0,0,0,0,0,0,0,0,0,0,0,0,0,0,0,0,0,0,0,0,0,0,0,0,0,0,0,0,0,0,0,0,0,0,0,0,0,0,0,0,0,0,0,0,0,0,0,0,0,0,0,0,0,0,0,0,0,0,0,0,0,0,0,0,0,0,0,0,0,0,0,0,0,0,0,0,0,0,0,0,0,0,0,0,0,0,0,0,0,0,0,0,0,0,0,0,0,0,0,0,0,0,0,0,0,0,0,0,0,0,0,0,0,0,0,0,0,0,0,0,0,0,0,0,0,0,0,0,0,0,0,0,0,0,0,0,0,0,0,0,0,0,0,0,0,0,0,0,0,0,0,0,0,0,0,0,0,0,0,0,0,0,0,0,0,0,0,0,0,0,0,0,0,0,0,0,0,0,0,0,0,0,0,0,0,0,0,0,0,0,0,0,0,0,0,0,0,0,0,0,0,0,0,0,0,0,0,0,0,0,0,0,0,0,0,0,0,0,0,0,0,0,0,0,0,0,0,0,0,0,0,0,0,0,0,0,0,0,0,0,0,0,0,0,0,0,0,0,0,0,0,0,0,0,0,0,0,0,0,0,0,0,0,0,0,0,0,0,0,0,0,0,0,0,0,0,0,0,0,0,0,0,0,0,0,0,0,0,0,0,0,0,0,0,0,0,0,0,0,0,0,0,0,0,0,0,0,0,0,0,0,0,0,0,0,0,0,0,0,0,0,0,0,0,0,0,0,0,0,0,0,0,0,0,0,0,0,0,0,0,0,0,0,0,0,0,0,0,0,0,0,0,0,0,0,0,0,0,0,0,0,0,0,0,0,0,0,0,0,0,0,0,0,0,0,0,0,0,0,0,0,0,0,0,0,0,0,0,0,0,0,0,0,0,0,0,0,0,0,0,0,0,0,0,0,0,0,0,0,0,0,0,0,0,0,0,0,0,0,0,0,0,0,0,0,0,0,0,0,0,0,0,0,0,0,0,0,0,0,0,0,0,0,0,0,0,0,0,0,0,0,0,0,0,0,0,0,0,0,0,0,0,0,0,0,0,0,0,0,0,0,0,0,0,0,0,0,0,0,0,0,0,0,0,0,0,0,0,0,0,0,0,0,0,0,0,0,0,0,0,0,0,0,0,0,0,0,0,0,0,0,0,0,0,0,0,0,0,0,0,0,0,0,0,0,0,0,0,0,0,0,0,0,0,0,0,0,0,0,0,0,0,0,0,0,0,0,0,0,0,0,0,0,0,0,0,0,0,0,0,0,0,0,0,0,0,0,0,0,0,0,0,0,0,0,0,0,0,0,0,0,0,0,0,0,0,0,0,0,0,0,0,0,0,0,0,0,0,0,0,0,0,0,0,0,0,0,0,0,0,0,0,0,0,0,0,0,0,0,0,0,0,0,0,0,0,0,0,0,0,0,0,0,0,0,0,0,0,0,0,0,0,0,0,0,0,0,0,0,0,0,0,0,0,0,0,0,0,0,0,0,0,0,0,0,0,0,0,0,0,0,0,0,0,0,0,0,0,0,0,0,0,0,0,0,0,0,0,0,0,0,0,0,0,0,0,0,0,0,0,0,0,0,0,0,0,0,0,0,0,0,0,0,0,0,0,0,0,0,0,0,0,0,0,0,0,0,0,0,0,0,0,0,0,0,0,0,0,0,0,0,0,0,0,0,0,0,0,0,0,0,0,0,0,0,0,0,0,0,0,0,0,0,0,0,0,0,0,0,0,0,0,0,0,0,0,0,0,0,0,0,0,0,0,0,0,0,0,0,0,0,0,0,0,0,0,0,0,0,0,0,0,0,0,0,0,0,0,0,0,0,0,0,0,0,0,0,0,0,0,0,0,0,0,0,0,0,0,0,0,0,0,0,0,0,0,0,0,0,0,0,0,0,0,0,0,0,0,0,0,0,0,0,0,0,0,0,0,0,0,0,0,0,0,0,0,0,0,0,0,0,0,0,0,0,0,0,0,0,0,0,0,0,0,0,0,0,0,0,0,0,0,0,0,0,0,0,0,0,0,0,0,0,0,0,0,0,0,0,0,0,0,0,0,0,0,0,0,0,0,0,0,0,0,0,0,0,0,0,0,0,0,0,0,0,0,0,0,0,0,0,0,0,0,0,0,0,0,0,0,0,0,0,0,0,0,0,0,0,0,0,0,0,0,0,0,0,0,0,0,0,0,0,0,0,0,0,0,0,0,0,0,0,0,0,0,0,0,0,0,0,0,0,0,0,0,0,0,0,0,0,0,0,0,0,0,0,0,0,0,0,0,0,0,0,0,0,0,0,0,0,0,0,0,0,0,0,0,0,0,0,0,0,0,0,0,0,0,0,0,0,0,0,0,0,0,0,0,0,0,0,0,0,0,0,0,0,0,0,0,0,0,0,0,0,0,0,0,0,0,0,0,0,0,0,0,0,0,0,0,0,0,0,0,0,0,0,0,0,0,0,0,0,0,0,0,0,0,0,0,0,0,0,0,0,0,0,0,0,0,0,0,0,0,0,0,0,0,0,0,0,0,0,0,0,0,0,0,0,0,0,0,0,0,0,0,0,0,0,0,0,0,0,0,0,0,0,0,0,0,0,0,0,0,0,0,0,0,0,0,0,0,0,0,0,0,0,0,0,0,0,0,0,0,0,0,0,0,0,0,0,0,0,0,0,0,0,0,0,0,0,0,0,0,0,0,0,0,0,0,0,0,0,0,0,0,0,0,0,0,0,0,0,0,0,0,0,0,0,0,0,0,0,0,0,0,0,0,0,0,0,0,0,0,0,0,0,0,0,0,0,0,0,0,0,0,0,0,0,0,0,0,0,0,0,0,0,0,0,0,0,0,0,0,0,0,0,0,0,0,0,0,0,0,0,0,0,0,0,0,0,0,0,0,0,0,0,0,0,0,0,0,0,0,0,0,0,0,0,0,0,0,0,0,0,0,0,0,0,0,0,0,0,0,0,0,0,0,0,0,0,0,0,0,0,0,0,0,0,0,0,0,0,0,0,0,0,0,0,0,0,0,0,0,0,0,0,0,0,0,0,0,0,0,0,0,0,0,0,0,0,0,0,0,0,0,0,0,0,0,0,0,0,0,0,0,0,0,0,0,0,0,0,0,0,0,0,0,0,0,0,0,0,0,0,0,0,0,0,0,0,0,0,0,0,0,0,0,0,0,0,0,0,0,0,0,0,0,0,0,0,0,0,0,0,0,0,0,0,0,0,0,0,0,0,0,0,0,0,0,0,0,0,0,0,0,0,0,0,0,0,0,0,0,0,0,0,0,0,0,0,0,0,0,0,0,0,0,0,0,0,0,0,0,0,0,0,0,0,0,0,0,0,0,0,0,0,0,0,0,0,0,0,0,0,0,0,0,0,0,0,0,0,0,0,0,0,0,0,0,0,0,0,0,0,0,0,0,0,0,0,0,0,0,0,0,0,0,0,0,0,0,0,0,0,0,0,0,0,0,0,0,0,0,0,0,0,0,0,0,0,0,0,0,0,0,0,0,0,0,0,0,0,0,0,0,0,0,0,0,0,0,0,0,0,0,0,0,0,0,0,0,0,0,0,0,0,0,0,0,0,0,0,0,0,0,0,0,0,0,0,0,0,0,0,0,0,0,0,0,0,0,0,0,0,0,0,0,0,0,0,0,0,0,0,0,0,0,0,0,0,0,0,0,0,0,0,0,0,0,0,0,0,0,0,0,0,0,0,0,0,0,0,0,0,0,0,0,0,0,0,0,0,0,0,0,0,0,0,0,0,0,0,0,0,0,0,0,0,0,0,0,0,0,0,0,0,0,0,0,0,0,0,0,0,0,0,0,0,0,0,0,0,0,0,0,0,0,0,0,0,0,0,0,0,0,0,0,0,0,0,0,0,0,0,0,0,0,0,0,0,0,0,0,0,0,0,0,0,0,0,0,0,0,0,0,0,0,0,0,0,0,0,0,0,0,0,0,0,0,0,0,0,0,0,0,0,0,0,0,0,0,0,0,0,0,0,0,0,0,0,0,0,0,0,0,0,0,0,0,0,0,0,0,0,0,0,0,0,0,0,0,0,0,0,0,0,0,0,0,0,0,0,0,0,0,0,0,0,0,0,0,0,0,0,0,0,0,0,0,0,0,0,0,0,0,0,0,0,0,0,0,0,0,0,0,0,0,0,0,0,0,0,0,0,0,0,0,0,0,0,0,0,0,0,0,0,0,0,0,0,0,0,0,0,0,0,0,0,0,0,0,0,0,0,0,0,0,0,0,0,0,0,0,0,0,0,0,0,0,0,0,0,0,0,0,0,0,0,0,0,0,0,0,0,0,0,0,0,0,0,0,0,0,0,0,0,0,0,0,0,0,0,0,0,0,0,0,0,0,0,0,0,0,0,0,0,0,0,0,0,0,0,0,0,0,0,0,0,0,0,0,0,0,0,0,0,0,0,0,0,0,0,0,0,0,0,0,0,0,0,0,0,0,0,0,0,0,0,0,0,0,0,0,0,0,0,0,0,0,0,0,0,0,0,0,0,0,0,0,0,0,0,0,0,0,0,0,0,0,0,0,0,0,0,0,0,0,0,0,0,0,0,0,0,0,0,0,0,0,0,0,0,0,0,0,0,0,0,0,0,0,0,0,0,0,0,0,0,0,0,0,0,0,0,0,0,0,0,0,0,0,0,0,0,0,0,0,0,0,0,0,0,0,0,0,0,0,0,0,0,0,0,0,0,0,0,0,0,0,0,0,0,0,0,0,0,0,0,0,0,0,0,0,0,0,0,0,0,0,0,0,0,0,0,0,0,0,0,0,0,0,0,0,0,0,0,0,0,0,0,0,0,0,0,0,0,0,0,0,0,0,0,0,0,0,0,0,0,0,0,0,0,0,0,0,0,0,0,0,0,0,0,0,0,0,0,0,0,0,0,0,0,0,0,0,0,0,0,0,0,0,0,0,0,0,0,0,0,0,0,0,0,0,0,0,0,0,0,0,0,0,0,0,0,0,0,0,0,0,0,0,0,0,0,0,0,0,0,0,0,0,0,0,0,0,0,0,0,0,0,0,0,0,0,0,0,0,0,0,0,0,0,0,0,0,0,0,0,0,0,0,0,0,0,0,0,0,0,0,0,0,0,0,0,0,0,0,0,0,0,0,0,0,0,0,0,0,0,0,0,0,0,0,0,0,0,0,0,0,0,0,0,0,0,0,0,0,0,0,0,0,0,0,0,0,0,0,0,0,0,0,0,0,0,0,0,0,0,0,0,0,0,0,0,0,0,0,0,0,0,0,0,0,0,0,0,0,0,0,0,0,0,0,0,0,0,0,0,0,0,0,0,0,0,0,0,0,0,0,0,0,0,0,0,0,0,0,0,0,0,0,0,0,0,0,0,0,0,0,0,0,0,0,0,0,0,0,0,0,0,0,0,0,0,0,0,0,0,0,0,0,0,0,0,0,0,0,0,0,0,0,0,0,0,0,0,0,0,0,0,0,0,0,0,0,0,0,0,0,0,0,0,0,0,0,0,0,0,0,0,0,0,0,0,0,0,0,0,0,0,0,0,0,0,0,0,0,0,0,0,0,0,0,0,0,0,0,0,0,0,0,0,0,0,0,0,0,0,0,0,0,0,0,0,0,0,0,0,0,0,0,0,0,0,0,0,0,0,0,0,0,0,0,0,0,0,0,0,0,0,0,0,0,0,0,0,0,0,0,0,0,0,0,0,0,0,0,0,0,0,0,0,0,0,0,0,0,0,0,0,0,0,0,0,0,0,0,0,0,0,0,0,0,0,0,0,0,0,0,0,0,0,0,0,0,0,0,0,0,0,0,0,0,0,0,0,0,0,0,0,0,0,0,0,0,0,0,0,0,0,0,0,0,0,0,0,0,0,0,0,0,0,0,0,0,0,0,0,0,0,0,0,0,0,0,0,0,0,0,0,0,0,0,0,0,0,0,0,0,0,0,0,0,0,0,0,0,0,0,0,0,0,0,0,0,0,0,0,0,0,0,0,0,0,0,0,0,0,0,0,0,0,0,0,0,0,0,0,0,0,0,0,0,0,0,0,0,0,0,0,0,0,0,0,0,0,0,0,0,0,0,0,0,0,0,0,0,0,0,0,0,0,0,0,0,0,0,0,0,0,0,0,0,0,0,0,0,0,0,0,0,0,0,0,0,0,0,0,0,0,0,0,0,0,0,0,0,0,0,0,0,0,0,0,0,0,0,0,0,0,0,0,0,0,0,0,0,0,0,0,0,0,0,0,0,0,0,0,0,0,0,0,0,0,0,0,0,0,0,0,0,0,0,0,0,0,0,0,0,0,0,0,0,0,0,0,0,0,0,0,0,0,0,0,0,0,0,0,0,0,0,0,0,0,0,0,0,0,0,0,0,0,0,0,0,0,0,0,0,0,0,0,0,0,0,0,0,0,0,0,0,0,0,0,0,0,0,0,0,0,0,0,0,0,0,0,0,0,0,0,0,0,0,0,0,0,0,0,0,0,0,0,0,0,0,0,0,0,0,0,0,0,0,0,0,0,0,0,0,0,0,0,0,0,0,0,0,0,0,0,0,0,0,0,0,0,0,0,0,0,0,0,0,0,0,0,0,0,0,0,0,0,0,0,0,0,0,0,0,0,0,0,0,0,0,0,0,0,0,0,0,0,0,0,0,0,0,0,0,0,0,0,0,0,0,0,0,0,0,0,0,0,0,0,0,0,0,0,0,0,0,0,0,0,0,0,0,0,0,0,0,0,0,0,0,0,0,0,0,0,0,0,0,0,